/*!
 * The following copyright notice may not be removed under any circumstances.
 * 
 * Copyright:
 * Caviar Dreams © Lauren Thompson (Nymphont) 2009. All rights reserved.
 * 
 * Description:
 * This font was created using FontCreator 5.6 from High-Logic.com
 * 
 * Designer:
 * Lauren Thompson
 * 
 * License information:
 * http://novelhunter.com.googlepages.com/nymphont.html
 */
Cufon.registerFont({"w":1250,"face":{"font-family":"Caviar","font-weight":300,"font-stretch":"normal","units-per-em":"2048","panose-1":"2 11 2 2 2 2 4 2 5 4","ascent":"1638","descent":"-410","x-height":"27","bbox":"-50 -1717 1767 375","underline-thickness":"150","underline-position":"-142","unicode-range":"U+0020-U+007E"},"glyphs":{" ":{"w":708},"\u00a0":{"w":708},"!":{"d":"215,-165v48,0,90,41,90,89v0,49,-42,90,-90,90v-48,0,-90,-41,-90,-90v0,-48,42,-89,90,-89xm258,-1600r0,1324r-90,0r0,-1324r90,0","w":430},"\"":{"d":"125,-997r0,-600r90,0r0,600r-90,0xm360,-997r0,-600r90,0r0,600r-90,0","w":575},"#":{"d":"763,-985r230,0r111,-445r90,0r-111,445r445,0r-23,90r-445,0r-57,230r445,0r-23,90r-445,0r-111,445r-90,0r111,-445r-230,0r-111,445r-90,0r111,-445r-445,0r23,-90r445,0r57,-230r-445,0r23,-90r445,0r111,-445r90,0xm970,-895r-230,0r-57,230r230,0","w":1653},"$":{"d":"556,-189v144,-19,270,-160,270,-319v0,-175,-138,-288,-270,-348r0,667xm466,-1413v-91,13,-171,103,-169,203v2,115,83,177,169,225r0,-428xm911,-508v0,206,-166,387,-355,406r0,140r-90,0r0,-139v-181,-10,-343,-169,-366,-344r82,-30v12,147,139,276,284,288r0,-704v-132,-57,-253,-153,-256,-319v-3,-145,120,-277,256,-289r0,-163r90,0r0,165v100,16,193,94,222,189r-78,31v-22,-63,-78,-117,-144,-133r0,464v176,67,355,214,355,438","w":1011},"%":{"d":"1107,-1314r-918,1311r-74,-51r918,-1311xm311,-1215v125,0,231,106,231,231v0,125,-106,231,-231,231v-125,0,-231,-106,-231,-231v0,-125,106,-231,231,-231xm455,-984v0,-78,-67,-144,-144,-144v-78,0,-144,66,-144,144v0,78,66,144,144,144v77,0,144,-67,144,-144xm911,-615v125,0,231,106,231,231v0,125,-106,231,-231,231v-125,0,-231,-106,-231,-231v0,-125,106,-231,231,-231xm1055,-384v0,-78,-67,-144,-144,-144v-78,0,-144,66,-144,144v0,78,66,144,144,144v77,0,144,-67,144,-144","w":1221},"&":{"d":"163,-456v0,208,178,386,386,386v169,0,321,-122,366,-261v-66,-19,-149,-132,-213,-169v-63,-36,-136,11,-136,77v0,71,57,98,136,84r-9,82v-121,29,-214,-50,-214,-166v0,-130,142,-217,265,-152v38,20,148,136,189,157v90,47,195,-16,194,-112v-1,-94,-83,-150,-182,-121r-1,-89v186,-47,335,145,241,315v-36,65,-94,103,-182,110v-52,177,-243,334,-454,334v-255,0,-474,-220,-474,-475v0,-241,172,-430,381,-493v-103,-48,-223,-160,-223,-333v0,-180,157,-337,339,-337v142,0,278,99,316,218r-81,32v-30,-86,-128,-162,-235,-162v-134,0,-249,114,-249,249v0,127,121,244,201,276v40,15,90,23,150,24r0,84r-72,2v-146,27,-256,81,-329,161v-73,80,-110,173,-110,279","w":1304},"'":{"d":"125,-997r0,-600r90,0r0,600r-90,0","w":340},"(":{"d":"603,117v-315,-120,-503,-465,-503,-917v0,-293,68,-524,204,-694v87,-110,187,-184,299,-223r0,89v-264,128,-425,421,-425,828v0,411,161,699,425,832r0,85","w":703},")":{"d":"525,-800v0,-408,-160,-699,-425,-828r0,-89v315,119,503,466,503,917v0,293,-68,524,-204,694v-88,110,-187,184,-299,223r0,-85v263,-132,425,-422,425,-832","w":703},"*":{"d":"445,-1384r174,-122r52,74r-193,135r193,135r-52,74r-174,-122r0,213r-90,0r0,-214r-175,123r-52,-74r193,-135r-193,-135r52,-74r175,123r0,-214r90,0r0,213","w":800},"+":{"d":"480,-547r-355,0r0,-90r355,0r0,-355r90,0r0,355r355,0r0,90r-355,0r0,355r-90,0r0,-355","w":1050},",":{"d":"279,-166r-185,385r-84,0r103,-385r166,0","w":379},"-":{"d":"125,-637r590,0r0,90r-590,0r0,-90","w":840},"\u00ad":{"d":"125,-637r590,0r0,90r-590,0r0,-90","w":840},".":{"d":"190,-165v48,0,90,41,90,89v0,49,-42,90,-90,90v-48,0,-90,-41,-90,-90v0,-48,42,-89,90,-89","w":380},"\/":{"d":"674,-1600r103,0r-725,1600r-102,0","w":727},"0":{"d":"625,-68v244,0,454,-209,454,-453r0,-530v7,-244,-210,-453,-454,-453v-244,0,-454,209,-454,453r0,530v-7,244,210,453,454,453xm625,-1600v296,0,549,254,549,549r0,530v8,295,-254,549,-549,549v-294,0,-549,-255,-549,-549r0,-530v-8,-294,255,-549,549,-549"},"1":{"d":"717,-1600r0,1600r-90,0r0,-1442r-95,0r123,-158r62,0"},"2":{"d":"622,-1622v257,0,477,221,477,478v0,131,-46,245,-137,344v-139,151,-338,281,-506,410v-105,80,-172,179,-198,300r841,0r0,90r-943,0v31,-207,103,-351,212,-434v183,-139,374,-263,528,-433v72,-80,109,-172,109,-277v0,-206,-177,-383,-383,-383v-193,0,-366,158,-380,341r-91,-33v28,-215,236,-403,471,-403"},"3":{"d":"622,-73v206,0,389,-177,383,-383v-8,-249,-188,-396,-436,-437r-75,-2r0,-90v150,-4,197,-32,282,-121v47,-49,69,-108,69,-176v0,-133,-113,-246,-246,-246v-107,0,-203,75,-233,163r-86,-34v38,-124,175,-223,319,-223v184,0,342,158,342,340v0,95,-25,170,-76,224v-51,54,-98,90,-142,108v205,62,376,255,376,494v0,257,-220,478,-477,478v-235,0,-443,-188,-471,-403r91,-33v15,183,187,341,380,341"},"4":{"d":"833,-1600r90,0r0,1042r153,0r0,90r-153,0r0,468r-90,0r0,-468r-660,0xm833,-1406r-505,848r505,0r0,-848"},"5":{"d":"181,-281v99,165,388,262,606,141v149,-83,253,-213,253,-422v0,-228,-153,-397,-337,-457v-152,-49,-295,-30,-460,21r-72,-63r184,-507r0,-32r500,0r0,90r-425,0r-148,407v125,-45,310,-56,447,-6v149,55,263,146,336,284v72,136,87,275,43,433v-74,263,-368,477,-709,376v-120,-36,-214,-101,-282,-194"},"6":{"d":"628,-975v-244,0,-454,210,-454,454v0,244,210,453,454,453v244,0,454,-209,454,-453v0,-244,-210,-454,-454,-454xm628,28v-290,0,-549,-248,-549,-532r-6,0v7,-235,63,-428,170,-577v110,-156,263,-340,423,-519r124,0r-42,50v-175,196,-314,367,-417,513v-22,31,-42,63,-59,97v101,-87,219,-131,356,-131v296,0,549,254,549,550v0,295,-254,549,-549,549"},"7":{"d":"828,-1046v-175,196,-314,367,-417,513v-103,146,-157,324,-164,533r-94,0v7,-235,63,-428,170,-577v107,-149,239,-312,396,-488v157,-176,249,-324,275,-445r-841,0r0,-90r943,0v-4,173,-93,358,-268,554"},"8":{"d":"201,-456v-4,219,186,408,425,381v238,26,423,-163,423,-381v0,-245,-183,-392,-424,-435v-242,44,-419,189,-424,435xm1143,-456v0,269,-229,505,-518,476v-291,29,-518,-208,-518,-476v0,-238,172,-432,376,-494v-44,-18,-91,-54,-142,-108v-51,-54,-76,-129,-76,-224v1,-193,162,-340,378,-340v184,0,342,158,342,340v0,95,-25,170,-76,224v-51,54,-98,90,-142,108v205,62,376,255,376,494xm889,-1282v1,-139,-117,-245,-265,-245v-147,0,-263,107,-263,245v0,126,119,241,198,273v20,7,42,13,66,17v93,-16,126,-44,195,-114v47,-48,69,-108,69,-176"},"9":{"d":"622,-597v244,0,454,-210,454,-454v0,-244,-210,-453,-454,-453v-244,0,-454,209,-454,453v0,244,210,454,454,454xm622,-1600v290,0,549,248,549,532r6,0v-7,235,-63,428,-170,577v-110,156,-263,340,-423,519r-124,0r42,-50v175,-196,314,-367,417,-513v22,-31,42,-63,59,-97v-101,87,-219,131,-356,131v-296,0,-549,-254,-549,-550v0,-295,254,-549,549,-549"},":":{"d":"215,-165v48,0,90,41,90,89v0,49,-42,90,-90,90v-48,0,-90,-41,-90,-90v0,-48,42,-89,90,-89xm215,-782v48,0,90,41,90,89v0,49,-42,90,-90,90v-48,0,-90,-41,-90,-90v0,-48,42,-89,90,-89","w":430},";":{"d":"352,-166r-185,385r-84,0r103,-385r166,0xm215,-782v48,0,90,41,90,89v0,49,-42,90,-90,90v-48,0,-90,-41,-90,-90v0,-48,42,-89,90,-89","w":477},"\u037e":{"d":"352,-166r-185,385r-84,0r103,-385r166,0xm215,-782v48,0,90,41,90,89v0,49,-42,90,-90,90v-48,0,-90,-41,-90,-90v0,-48,42,-89,90,-89","w":477},"<":{"d":"1249,-145r-1149,-418r1149,-418r0,96r-886,322r886,322r0,96","w":1349},"=":{"d":"125,-797r800,0r0,90r-800,0r0,-90xm125,-477r800,0r0,90r-800,0r0,-90","w":1050},">":{"d":"100,-241r886,-322r-886,-322r0,-96r1149,418r-1149,418r0,-96","w":1349},"?":{"d":"467,-1540v199,0,338,138,338,339v0,49,-12,98,-35,146v-41,85,-112,159,-203,237v-115,99,-217,213,-217,395v0,43,8,86,23,129r-83,29v-44,-127,-35,-247,21,-362v53,-111,141,-200,241,-289v94,-84,162,-150,162,-286v0,-149,-103,-250,-249,-250v-147,0,-241,101,-250,246r-88,-4v12,-197,142,-330,340,-330xm326,-165v48,0,90,41,90,89v0,49,-42,90,-90,90v-48,0,-90,-41,-90,-90v0,-48,42,-89,90,-89","w":956},"@":{"d":"816,-269v131,0,248,-99,272,-214r0,-132v-24,-115,-141,-215,-272,-215v-151,0,-279,131,-279,282v0,150,129,279,279,279xm1204,-130v-103,-6,-128,-73,-118,-183v-81,85,-171,127,-272,127v-194,0,-364,-170,-364,-362v0,-195,169,-365,364,-365v101,0,191,42,272,127r0,-114r81,0r0,648v12,29,30,43,55,43v29,0,70,-37,122,-111v52,-74,78,-149,78,-227v0,-326,-283,-608,-608,-608v-326,0,-606,283,-606,608v0,326,281,606,606,606v115,0,198,-16,251,-49r57,60v-80,47,-183,70,-308,70v-368,0,-689,-320,-689,-687v0,-368,321,-689,689,-689v369,0,687,321,687,689v0,148,-148,426,-297,417","w":1626},"A":{"d":"890,-703r-244,-671r-244,671r488,0xm923,-613r-554,0r-223,613r-96,0r596,-1637r595,1637r-95,0","w":1291,"k":{"Y":291,"V":291,"T":133}},"B":{"d":"976,-551v0,283,-238,551,-516,551r-310,0r0,-1600r284,-1v159,-5,298,139,298,298v0,83,-42,160,-127,231v75,15,143,61,211,132v105,109,160,237,160,389xm881,-551v0,-244,-210,-461,-454,-454r-187,0r0,915r220,1v225,-9,421,-228,421,-462xm646,-1303v0,-118,-95,-207,-212,-207r-194,0r0,409r217,0v104,-8,189,-90,189,-202","w":1066},"C":{"d":"217,-800v0,392,336,728,727,728v185,0,346,-61,483,-183r68,61v-156,142,-340,213,-551,213v-441,0,-819,-378,-819,-819v0,-440,378,-819,819,-819v211,0,395,71,551,213r-68,62v-137,-122,-298,-183,-483,-183v-391,0,-727,337,-727,727","w":1595},"D":{"d":"240,-1506r0,1413v241,1,423,-65,554,-192v282,-271,282,-758,0,-1030v-131,-126,-313,-192,-554,-191xm150,-1600v31,1,74,2,97,2v263,0,465,76,612,218v317,307,316,853,0,1160v-166,161,-398,227,-709,220r0,-1600","w":1199},"E":{"d":"950,-1600r0,90r-710,0r0,665r710,0r0,90r-710,0r0,665r710,0r0,90r-800,0r0,-1600r800,0","w":1075},"F":{"d":"850,-1600r0,90r-610,0r0,665r610,0r0,90r-610,0r0,755r-90,0r0,-1600r700,0","w":975,"k":{".":460,",":433}},"G":{"d":"217,-800v0,392,336,728,727,728v172,0,324,-53,455,-159r0,-488r90,0r0,520v-152,145,-334,218,-545,218v-441,0,-819,-378,-819,-819v0,-440,378,-819,819,-819v211,0,395,71,551,213r-68,62v-137,-122,-298,-183,-483,-183v-391,0,-727,337,-727,727","w":1620},"H":{"d":"240,-717r0,717r-90,0r0,-1600r90,0r0,793r670,0r0,-793r90,0r0,1600r-90,0r0,-717r-670,0","w":1150},"I":{"d":"260,-1600r0,1600r-90,0r0,-1600r90,0","w":430},"J":{"d":"416,-76v110,0,196,-89,196,-213r0,-1311r90,0r0,1326v5,161,-131,288,-286,288v-149,0,-293,-135,-291,-273r89,-23v-4,113,92,206,202,206","w":857},"K":{"d":"240,-775r0,775r-90,0r0,-1600r90,0r0,681r511,-681r116,0r-480,644r620,956r-111,0r-568,-884","w":1097},"L":{"d":"150,0r0,-1600r90,0r0,1510r620,0r0,90r-710,0","w":950,"k":{"y":127,"Y":322,"V":322,"T":165}},"M":{"d":"253,-1600r601,1040r600,-1040r103,0r-4,7r0,1593r-90,0r0,-1437r-609,1054r-610,-1054r0,1437r-90,0r0,-1593r-4,-7r103,0","w":1707},"N":{"d":"150,-1600r99,0r822,1423r0,-1423r90,0r0,1600r-90,0r-831,-1437r0,1437r-90,0r0,-1600","w":1311},"O":{"d":"946,-1623v441,0,821,380,821,821v0,441,-380,821,-821,821v-441,0,-821,-380,-821,-821v0,-441,380,-821,821,-821xm1675,-802v0,-392,-337,-729,-729,-729v-392,0,-729,337,-729,729v0,392,337,730,729,730v392,0,729,-338,729,-730","w":1892},"P":{"d":"1034,-1078v0,281,-242,531,-522,523r-272,0r0,555r-90,0r0,-1600r420,0v251,28,464,254,464,522xm943,-1078v0,-232,-200,-431,-431,-431r-272,0r0,863r272,0v231,6,431,-200,431,-432","w":1089,"k":{".":574,",":547}},"Q":{"d":"1675,-802v0,-392,-337,-729,-729,-729v-392,0,-729,337,-729,729v0,392,337,730,729,730v392,0,729,-338,729,-730xm1057,81v-107,0,-183,76,-197,173r-91,0v14,-116,75,-189,168,-235v-435,8,-812,-383,-812,-821v0,-441,380,-821,821,-821v441,0,821,380,821,821v0,389,-299,735,-639,802v91,11,249,162,366,162v82,0,139,-59,145,-139r91,0v-11,131,-101,222,-234,228v-150,7,-287,-170,-439,-170","w":1892},"R":{"d":"943,-1078v0,-232,-200,-431,-431,-431r-272,0r0,863r272,0v231,6,431,-200,431,-432xm1034,-1078v0,245,-184,461,-396,509r369,569r-111,0r-357,-556r-299,1r0,555r-90,0r0,-1600r420,0v251,28,464,254,464,522","w":1089},"S":{"d":"518,-70v208,0,389,-179,386,-386v-3,-223,-179,-364,-356,-430v-190,-72,-362,-172,-369,-396v-6,-180,157,-337,339,-337v142,0,278,99,316,218r-81,32v-30,-86,-128,-162,-235,-162v-134,0,-254,114,-249,249v6,165,123,246,261,299v225,87,458,246,462,527v4,255,-219,475,-474,475v-232,0,-440,-187,-468,-398r85,-31v16,181,189,340,383,340","w":1042},"T":{"d":"545,-1510r0,1510r-90,0r0,-1510r-405,0r0,-90r900,0r0,90r-405,0","w":1000,"k":{"y":182,"w":257,"u":257,"s":222,"r":257,"o":197,"i":232,"e":197,"c":197,"a":232,"O":201,"A":157,";":222,":":232,".":207,"-":232,",":180}},"U":{"d":"673,-77v232,0,431,-200,431,-431r0,-1092r91,0r0,1150v-28,251,-254,464,-522,464v-281,0,-523,-241,-523,-522r0,-1092r91,0r0,1092v-6,231,200,431,432,431","w":1345},"V":{"d":"145,-1600r500,1374r500,-1374r96,0r-596,1637r-595,-1637r95,0","w":1291,"k":{"o":142,"e":142,"a":177,"A":322,";":135,":":145,".":372,"-":177,",":377}},"W":{"d":"520,-76v117,0,225,-73,271,-164r0,-1360r90,0r0,1360v46,91,154,164,271,164v161,0,305,-140,305,-302r0,-1222r90,0r0,1230v1,206,-186,384,-395,384v-127,0,-246,-65,-316,-156v-69,90,-190,156,-316,156v-209,0,-395,-179,-395,-384r0,-1230r90,0r0,1222v-5,162,144,302,305,302","w":1672},"X":{"d":"50,0r507,-879r-416,-721r103,0r364,632r366,-632r103,0r-418,721r509,879r-103,0r-457,-790r-456,790r-102,0","w":1218},"Y":{"d":"600,-647r-550,-953r103,0r492,853r493,-853r103,0r-551,953r0,647r-90,0r0,-647","w":1291,"k":{"v":102,"u":202,"q":341,"p":202,"o":299,"e":299,"a":366,"A":291,";":292,":":303,".":341,"-":366,",":314}},"Z":{"d":"1022,-1510r-872,0r0,-90r1027,0r-873,1510r873,0r0,90r-1027,0","w":1327},"[":{"d":"215,285r220,0r0,90r-310,0r0,-1975r310,0r0,90r-220,0r0,1795","w":560},"\\":{"d":"777,0r-102,0r-725,-1600r103,0","w":727},"]":{"d":"345,-1510r-220,0r0,-90r310,0r0,1975r-310,0r0,-90r220,0r0,-1795","w":560},"^":{"d":"513,-1600r308,534r-104,0r-256,-443r-256,443r-105,0r309,-534r104,0","w":921},"_":{"d":"25,30r1000,0r0,90r-1000,0r0,-90","w":1050},"`":{"d":"316,-1287r163,187r-84,0r-245,-187r166,0","w":629},"a":{"d":"674,-1071v181,0,352,96,446,228r0,-139r90,0r0,982r-90,0r0,-200v-94,131,-265,228,-446,228v-294,0,-549,-255,-549,-549v0,-295,254,-550,549,-550xm674,-68v218,0,412,-170,446,-364r0,-178v-33,-195,-227,-365,-446,-365v-244,0,-454,210,-454,454v0,244,210,453,454,453","w":1360},"b":{"d":"685,28v-180,0,-351,-97,-445,-227r0,199r-90,0r0,-1600r90,0r0,756v94,-130,265,-227,445,-227v296,0,549,254,549,550v0,295,-254,549,-549,549xm685,-975v-217,0,-410,168,-445,360r0,188v36,191,228,359,445,359v244,0,454,-209,454,-453v0,-244,-210,-454,-454,-454","w":1359},"c":{"d":"639,-68v141,0,271,-68,353,-168r95,34v-94,132,-266,230,-448,230v-295,0,-549,-255,-549,-550v0,-294,255,-549,549,-549v182,0,353,98,448,229r-95,35v-80,-100,-213,-168,-353,-168v-243,0,-453,210,-453,453v0,243,210,454,453,454","w":1177},"d":{"d":"674,-1071v181,0,352,96,446,228r0,-757r90,0r0,1600r-90,0r0,-200v-94,131,-265,228,-446,228v-294,0,-549,-255,-549,-549v0,-295,254,-550,549,-550xm674,-68v218,0,412,-170,446,-364r0,-178v-33,-195,-227,-365,-446,-365v-244,0,-454,210,-454,454v0,244,210,453,454,453","w":1360},"e":{"d":"90,-522v0,-294,255,-549,549,-549v163,0,316,75,406,179r-708,708v85,77,185,116,302,116v141,0,271,-68,353,-168r95,34v-94,132,-266,230,-448,230v-295,0,-549,-255,-549,-550xm639,-975v-243,0,-453,210,-453,453v0,103,30,194,90,272r635,-635v-78,-60,-169,-90,-272,-90","w":1177},"f":{"d":"554,-1414v-130,-63,-274,45,-274,172r0,260r200,0r0,90r-200,0r0,892r-90,0r0,-892r-100,0r0,-90r100,0r0,-266v5,-181,196,-325,392,-246","w":523},"g":{"d":"674,-67v217,0,408,-167,445,-358r0,-190v-35,-192,-228,-360,-445,-360v-244,0,-454,210,-454,454v0,244,210,454,454,454xm312,56v81,99,213,168,353,168v233,0,443,-196,452,-419v-96,129,-264,223,-443,223v-294,0,-549,-255,-549,-549v0,-296,254,-549,549,-549v181,0,352,95,446,227r0,-139r90,0r0,763v8,291,-255,539,-545,539v-182,0,-354,-98,-448,-230","w":1364},"h":{"d":"514,-951v-118,0,-232,79,-274,170r0,781r-90,0r0,-1600r90,0r0,669v76,-73,167,-110,274,-110v226,0,394,165,395,384r0,657r-90,0r0,-649v5,-162,-144,-302,-305,-302","w":1059},"i":{"d":"260,-982r0,982r-90,0r0,-982r90,0xm215,-1330v48,0,90,41,90,89v0,49,-42,90,-90,90v-48,0,-90,-41,-90,-90v0,-48,42,-89,90,-89","w":430},"j":{"d":"49,138v81,-9,121,-55,121,-136r0,-984r90,0r0,982v0,141,-70,217,-211,228r0,-90xm215,-1330v48,0,90,41,90,89v0,49,-42,90,-90,90v-48,0,-90,-41,-90,-90v0,-48,42,-89,90,-89","w":455},"k":{"d":"629,-982r-242,300r386,682r-112,0r-333,-610r-88,109r0,501r-90,0r0,-1400r90,0r0,755r273,-337r116,0","w":823},"l":{"d":"240,-1600r0,1600r-90,0r0,-1600r90,0","w":390},"m":{"d":"441,-950v-104,0,-201,84,-201,184r0,766r-90,0r0,-982r90,0r0,23v56,-54,123,-81,201,-81v103,0,199,58,246,135v48,-75,144,-135,247,-135v155,0,291,130,291,282r0,758r-90,0r1,-758v-2,-104,-96,-192,-202,-192v-110,0,-202,94,-202,206r0,744r-90,0r1,-758v-2,-104,-96,-192,-202,-192","w":1375},"n":{"d":"526,-951v-127,0,-245,92,-286,188r0,763r-90,0r0,-982r90,0r0,63v82,-81,177,-122,286,-122v226,0,394,165,395,384r0,657r-90,0r0,-649v5,-162,-144,-302,-305,-302","w":1071},"o":{"d":"90,-521v0,-295,254,-550,549,-550v296,0,549,254,549,550v0,295,-254,549,-549,549v-294,0,-549,-255,-549,-549xm639,-975v-244,0,-454,210,-454,454v0,244,210,453,454,453v244,0,454,-209,454,-453v0,-244,-210,-454,-454,-454","w":1278},"p":{"d":"685,28v-180,0,-351,-97,-445,-227r0,574r-90,0r0,-1357r90,0r0,138v94,-129,265,-226,445,-226v296,0,549,253,549,549v0,295,-254,549,-549,549xm685,-975v-217,0,-410,168,-445,360r0,188v35,192,228,360,445,360v244,0,454,-210,454,-454v0,-244,-210,-454,-454,-454","w":1334},"q":{"d":"649,-1070v181,0,352,95,446,227r0,-139r90,0r0,1357r-90,0r0,-575v-94,131,-265,228,-446,228v-294,0,-549,-255,-549,-549v0,-296,254,-549,549,-549xm649,-67v219,0,413,-170,446,-365r0,-178v-33,-195,-227,-365,-446,-365v-244,0,-454,210,-454,454v0,244,210,454,454,454","w":1335},"r":{"d":"150,-982r90,0r0,179v63,-94,200,-205,309,-202r0,98v-57,3,-115,34,-176,95v-85,85,-133,186,-133,305r0,507r-90,0r0,-982","w":599,"k":{"-":109}},"s":{"d":"406,-66v108,0,202,-93,202,-203v0,-55,-20,-103,-59,-142v-21,-21,-63,-55,-129,-94v-75,-44,-130,-77,-159,-106v-46,-46,-69,-101,-69,-166v0,-127,109,-237,235,-237v121,0,227,95,224,212r-78,31v-11,-91,-54,-150,-146,-152v-78,-2,-152,67,-146,146v7,103,56,122,149,179v83,51,146,88,182,124v57,57,85,126,85,205v0,158,-134,293,-291,293v-149,0,-293,-135,-291,-273r89,-23v-4,113,92,206,202,206","w":802},"t":{"d":"290,-982r0,-418r90,0r0,418r200,0r0,90r-200,0r0,892r-90,0r0,-892r-200,0r0,-90r200,0","w":670},"u":{"d":"949,-370v-1,219,-169,384,-394,384v-236,0,-405,-161,-405,-384r0,-614r90,0r0,606v-3,165,145,302,314,302v161,0,305,-140,305,-302r0,-606r90,0r0,614","w":1099},"v":{"d":"532,-164r378,-818r104,0r-482,1009r-482,-1009r104,0","w":1064,"k":{".":208,",":213}},"w":{"d":"441,-76v104,0,201,-83,201,-184r0,-722r90,0r0,700v-4,113,92,206,202,206v105,0,201,-91,201,-192r0,-714r90,0r0,714v-1,152,-137,282,-291,282v-102,0,-197,-60,-246,-134v-49,73,-145,134,-247,134v-154,0,-291,-130,-291,-282r0,-714r90,0r-1,714v3,103,96,192,202,192","w":1375},"x":{"d":"741,-982r-256,443r311,539r-104,0r-256,-443r-256,443r-105,0r312,-539r-256,-443r104,0r201,347r200,-347r105,0","w":871},"y":{"d":"930,-982r-649,1357r-88,0r265,-556r-383,-801r102,0r326,704r326,-704r101,0","w":1005,"k":{".":219,",":223}},"z":{"d":"657,-878r-507,0r0,-90r662,0r-508,878r546,0r0,90r-700,0","w":1000},"{":{"d":"418,40v0,-68,21,-149,20,-224v-2,-168,-55,-284,-170,-347v-62,-34,-94,-50,-143,-41r0,-81v50,10,81,-7,143,-41v116,-63,170,-178,170,-347v0,-120,-37,-239,-4,-351v35,-120,149,-222,307,-205r0,75v-171,-16,-249,104,-249,275v0,73,20,145,19,213v-4,213,-85,351,-241,421v155,72,238,208,241,422v1,68,-19,140,-19,213v0,173,78,288,249,276r0,74v-13,2,-25,3,-38,3v-181,-13,-285,-139,-285,-335","w":866},"|":{"d":"240,-1600r0,1975r-90,0r0,-1975r90,0","w":390},"}":{"d":"448,-1266v0,68,-21,150,-20,225v2,168,55,284,170,347v62,34,94,50,143,41r0,81v-50,-10,-81,7,-143,41v-116,63,-168,178,-170,347v-1,75,20,156,20,224v0,197,-103,322,-285,335v-13,0,-25,-1,-38,-3r0,-74v171,12,249,-104,249,-276v0,-73,-20,-145,-19,-213v3,-213,86,-351,241,-422v-156,-70,-238,-208,-241,-421v-1,-68,19,-140,19,-213v0,-172,-77,-290,-249,-275r0,-75v13,-2,25,-3,38,-3v181,13,285,138,285,334","w":866},"~":{"d":"365,-873v-97,0,-142,84,-150,180r-90,-14v15,-140,89,-253,234,-253v71,0,164,33,279,99v126,72,216,109,273,109v97,0,144,-82,150,-180r91,14v-19,139,-88,253,-235,253v-70,0,-163,-33,-278,-99v-127,-73,-218,-109,-274,-109","w":1277}}});
/*!
 * The following copyright notice may not be removed under any circumstances.
 * 
 * Copyright:
 * Caviar Dreams Bold © Lauren Thompson (Nymphont) 2009. All rights reserved.
 * http://www.nymphont.com/
 * 
 * Description:
 * This font was created using FontCreator 5.6 from High-Logic.com
 * 
 * Designer:
 * Lauren Thompson
 * 
 * License information:
 * http://novelhunter.com.googlepages.com/nymphont.html
 */
Cufon.registerFont({"w":1220,"face":{"font-family":"Caviar","font-weight":500,"font-stretch":"normal","units-per-em":"2048","panose-1":"2 11 6 2 2 2 4 2 5 4","ascent":"1638","descent":"-410","x-height":"26","bbox":"-50 -1633 1680 345","underline-thickness":"150","underline-position":"-142","unicode-range":"U+0020-U+007E"},"glyphs":{" ":{"w":708},"\u00a0":{"w":708},"!":{"d":"230,-196v56,0,105,48,105,104v0,57,-49,105,-105,105v-56,0,-105,-48,-105,-105v0,-56,49,-104,105,-104xm291,-1516r0,1262r-126,0r0,-1262r126,0","w":460},"\"":{"d":"125,-917r0,-596r127,0r0,596r-127,0xm341,-917r0,-596r127,0r0,596r-127,0","w":593},"#":{"d":"768,-950r167,0r102,-410r128,0r-102,410r409,0r-32,127r-409,0r-42,167r410,0r-33,127r-409,0r-102,409r-128,0r102,-409r-166,0r-102,409r-129,0r103,-409r-410,0r32,-127r410,0r41,-167r-409,0r32,-127r409,0r102,-410r129,0xm903,-823r-167,0r-41,167r166,0","w":1598},"$":{"d":"566,-221v97,-17,204,-145,204,-268v0,-133,-117,-245,-204,-286r0,554xm439,-1296v-47,12,-120,93,-111,161v-7,76,66,144,111,170r0,-331xm893,-489v0,192,-162,373,-327,393r0,131r-127,0r0,-130v-165,-14,-321,-172,-339,-351r119,-43v7,141,109,253,220,271r0,-609v-116,-51,-235,-155,-235,-308v0,-136,119,-272,235,-286r0,-152r127,0r0,155v92,19,181,101,210,205r-112,45v-18,-59,-60,-105,-98,-123r0,384v157,59,327,211,327,418","w":992},"%":{"d":"1078,-1236r-870,1242r-105,-72r870,-1242xm315,-1162v126,0,234,108,234,235v0,126,-108,234,-234,234v-127,0,-235,-108,-235,-234v0,-127,108,-235,235,-235xm425,-927v0,-59,-51,-111,-110,-111v-61,0,-111,51,-111,111v0,60,50,110,111,110v59,0,110,-51,110,-110xm867,-610v126,0,234,108,234,235v0,126,-108,234,-234,234v-127,0,-235,-108,-235,-234v0,-127,108,-235,235,-235xm977,-375v0,-59,-51,-111,-110,-111v-61,0,-111,51,-111,111v0,60,50,110,111,110v59,0,110,-51,110,-110","w":1180},"&":{"d":"200,-442v-6,180,154,334,333,334v134,0,271,-104,309,-206v-44,-19,-129,-119,-179,-149v-42,-25,-92,9,-92,52v0,63,54,65,128,52r-13,118v-133,40,-239,-43,-239,-170v0,-136,147,-226,276,-159v36,19,134,123,174,144v68,36,149,-12,146,-84v-3,-83,-77,-118,-167,-82r-2,-127v196,-65,360,135,263,317v-35,63,-92,99,-170,112v-48,157,-238,307,-434,307v-246,0,-458,-212,-458,-459v0,-200,161,-403,311,-456v-12,-5,-43,-33,-92,-86v-49,-53,-74,-125,-74,-217v0,-177,155,-332,334,-332v152,0,279,99,318,235r-114,45v-30,-90,-102,-154,-204,-156v-111,-2,-207,96,-207,208v0,107,103,206,171,233v34,13,85,20,152,21r0,120r-86,3v-219,37,-376,163,-384,382","w":1257},"'":{"d":"125,-917r0,-596r127,0r0,596r-127,0","w":377},"(":{"d":"607,117v-327,-116,-507,-429,-507,-875v0,-445,180,-759,507,-875r0,127v-248,118,-391,374,-391,748v0,377,144,630,391,752r0,123","w":707},")":{"d":"491,-758v0,-375,-142,-630,-391,-748r0,-127v327,116,507,431,507,875v0,445,-180,758,-507,875r0,-123v247,-122,391,-375,391,-752","w":707},"*":{"d":"472,-1338r144,-100r73,104r-170,119r170,119r-73,104r-144,-101r0,176r-126,0r0,-177r-145,102r-73,-104r170,-119r-170,-119r73,-104r145,101r0,-176r126,0r0,175","w":818},"+":{"d":"452,-503r-327,0r0,-127r327,0r0,-327r126,0r0,327r327,0r0,127r-327,0r0,326r-126,0r0,-326","w":1030},",":{"d":"321,-197r-191,398r-120,0r107,-398r204,0","w":421},"-":{"d":"125,-630r587,0r0,127r-587,0r0,-127","w":837},"\u00ad":{"d":"125,-630r587,0r0,127r-587,0r0,-127","w":837},".":{"d":"205,-196v56,0,105,48,105,104v0,57,-49,105,-105,105v-56,0,-105,-48,-105,-105v0,-56,49,-104,105,-104","w":410},"\/":{"d":"636,-1516r143,0r-687,1516r-142,0","w":729},"0":{"d":"603,-107v213,0,396,-181,396,-394r0,-488v6,-213,-183,-395,-396,-395v-213,0,-396,182,-396,395r0,488v-6,213,183,394,396,394xm603,-1516v284,0,527,244,527,527r0,488v8,283,-243,527,-527,527v-283,0,-527,-244,-527,-527r0,-488v-8,-283,244,-527,527,-527","w":1206},"1":{"d":"769,-1516r0,1516r-127,0r0,-1327r-110,0r147,-189r90,0","w":1302},"2":{"d":"609,-1536v248,0,461,213,461,462v0,126,-44,236,-132,331v-129,140,-313,260,-469,380v-92,70,-149,148,-168,236r769,0r0,127r-915,0v31,-213,100,-357,203,-436v166,-127,345,-242,484,-396v64,-70,97,-151,97,-242v0,-179,-152,-334,-330,-331v-180,3,-318,138,-331,322r-127,-46v28,-225,221,-407,458,-407"},"3":{"d":"609,-111v178,3,336,-152,330,-331v-7,-216,-164,-344,-381,-380r-89,-2r0,-126v151,-3,183,-21,263,-103v40,-41,60,-91,60,-148v0,-111,-94,-207,-204,-205v-102,2,-172,64,-202,157r-119,-47v40,-140,167,-237,321,-240v181,-3,336,156,336,335v0,93,-24,166,-74,219v-50,53,-78,81,-85,84v54,18,112,60,173,125v88,95,132,205,132,331v0,249,-213,462,-461,462v-236,0,-430,-182,-458,-407r127,-46v14,185,150,319,331,322"},"4":{"d":"806,-1516r117,0r0,959r141,0r0,126r-141,0r0,431r-127,0r0,-431r-623,0xm796,-1236r-403,679r403,0r0,-679","w":1238},"5":{"d":"207,-316v82,119,183,195,354,195v241,0,411,-171,411,-418v0,-201,-134,-349,-295,-400v-143,-45,-263,-24,-421,24r-87,-76r173,-477r0,-48r504,0r0,127r-397,0r-116,318v100,-30,273,-31,383,8v211,75,387,261,387,525v0,239,-118,391,-290,484v-128,70,-266,84,-415,38v-115,-35,-208,-102,-281,-201","w":1219},"6":{"d":"606,-897v-213,0,-395,183,-395,396v0,213,182,394,395,394v213,0,396,-181,396,-394v0,-213,-183,-396,-396,-396xm606,26v-269,0,-524,-238,-526,-490r-7,0v7,-236,60,-423,159,-563v105,-148,251,-321,399,-489r170,0v-31,39,-54,67,-68,83v-161,179,-288,336,-382,470v39,-44,124,-66,255,-66v284,0,527,244,527,528v0,283,-243,527,-527,527","w":1207},"7":{"d":"816,-973v-162,182,-291,339,-384,471v-93,132,-142,299,-149,502r-130,0v7,-236,59,-424,159,-564v100,-140,222,-289,366,-450v144,-161,225,-286,244,-375r-768,0r0,-127r912,0v-5,180,-88,361,-250,543"},"8":{"d":"237,-442v-4,191,162,354,371,329v206,24,369,-140,366,-329v-3,-211,-161,-341,-368,-377v-209,37,-365,165,-369,377xm1104,-442v1,260,-217,461,-498,461v-282,0,-499,-201,-499,-461v0,-126,44,-236,132,-331v61,-65,118,-107,173,-125v-7,-3,-36,-31,-86,-84v-50,-53,-74,-126,-74,-219v1,-189,159,-335,370,-335v182,0,337,156,337,335v0,93,-25,166,-75,219v-50,53,-78,81,-85,84v55,18,112,60,173,125v88,95,132,205,132,331xm826,-1201v0,-117,-97,-204,-223,-204v-122,0,-218,89,-218,204v0,105,101,204,168,230v17,6,34,11,53,14v75,-14,104,-37,161,-96v40,-41,59,-91,59,-148","w":1211},"9":{"d":"600,-593v213,0,396,-183,396,-396v0,-213,-183,-395,-396,-395v-213,0,-396,182,-396,395v0,213,183,396,396,396xm600,-1516v269,0,524,237,527,489r6,0v-7,237,-60,424,-159,564v-105,148,-251,321,-399,489r-170,0r68,-83v161,-179,288,-336,382,-470v-39,44,-124,66,-255,66v-284,0,-527,-244,-527,-528v0,-283,243,-527,527,-527","w":1207},":":{"d":"230,-196v56,0,105,48,105,104v0,57,-49,105,-105,105v-56,0,-105,-48,-105,-105v0,-56,49,-104,105,-104xm230,-763v56,0,105,47,105,103v0,58,-48,105,-105,105v-57,0,-105,-47,-105,-105v0,-56,49,-103,105,-103","w":460},";":{"d":"394,-197r-191,398r-120,0r107,-398r204,0xm233,-763v56,0,105,47,105,103v0,58,-48,105,-105,105v-57,0,-105,-47,-105,-105v0,-56,49,-103,105,-103","w":519},"\u037e":{"d":"394,-197r-191,398r-120,0r107,-398r204,0xm233,-763v56,0,105,47,105,103v0,58,-48,105,-105,105v-57,0,-105,-47,-105,-105v0,-56,49,-103,105,-103","w":519},"<":{"d":"1243,-124r-1143,-416r1143,-416r0,135r-772,281r772,281r0,135","w":1343},"=":{"d":"125,-777r780,0r0,127r-780,0r0,-127xm125,-483r780,0r0,127r-780,0r0,-127","w":1030},">":{"d":"100,-259r773,-281r-773,-281r0,-135r1143,416r-1143,416r0,-135","w":1343},"?":{"d":"462,-1461v195,0,333,136,333,334v0,49,-12,97,-35,144v-39,81,-107,151,-192,225v-125,108,-245,266,-165,479r-118,41v-49,-139,-45,-246,13,-370v50,-106,134,-189,228,-273v82,-73,141,-130,141,-247v0,-124,-86,-208,-207,-208v-130,0,-208,85,-208,228r-125,-6v-4,-171,97,-282,223,-327v38,-13,75,-20,112,-20xm332,-196v56,0,105,48,105,104v0,57,-49,105,-105,105v-56,0,-105,-48,-105,-105v0,-56,49,-104,105,-104","w":946},"@":{"d":"783,-291v109,0,208,-83,228,-178r0,-116v-20,-95,-120,-179,-228,-179v-128,0,-235,110,-235,238v0,126,108,235,235,235xm1140,-120v-87,-6,-133,-49,-131,-135v-53,56,-129,84,-228,84v-190,0,-357,-167,-357,-355v0,-192,166,-358,357,-358v99,0,175,28,228,84r0,-72r119,0r0,614v6,15,15,22,28,22v19,0,52,-31,96,-94v44,-63,66,-128,66,-195v0,-288,-249,-538,-537,-538v-288,0,-536,250,-536,538v0,288,248,535,536,535v101,0,179,-17,234,-51r84,88v-93,55,-199,82,-318,82v-350,0,-656,-305,-656,-654v0,-351,305,-656,656,-656v352,0,654,305,654,656v0,147,-144,416,-295,405","w":1560},"A":{"d":"823,-691r-193,-531r-193,531r386,0xm869,-564r-479,0r-205,564r-135,0r580,-1592r579,1592r-135,0","w":1259,"k":{"Y":259,"V":290,"T":101}},"B":{"d":"954,-529v0,264,-229,529,-475,529r-329,0r0,-1516r283,-1v159,-5,296,137,296,296v0,83,-30,150,-90,200v44,9,96,51,162,119v100,104,153,227,153,373xm823,-529v0,-213,-183,-402,-396,-396r-150,0r0,798r202,0v173,-10,344,-209,344,-402xm606,-1221v0,-96,-77,-168,-173,-168r-156,0r0,332r176,0v84,-7,153,-73,153,-164","w":1044},"C":{"d":"254,-758v0,348,299,648,646,648v165,0,313,-59,445,-176r95,85v-159,145,-339,218,-540,218v-417,0,-775,-358,-775,-775v0,-417,359,-775,775,-775v201,0,381,72,540,217r-95,87v-132,-117,-280,-176,-445,-176v-347,0,-646,300,-646,647","w":1540},"D":{"d":"277,-130v395,14,659,-273,661,-628v0,-179,-63,-331,-189,-458v-113,-113,-270,-170,-472,-170r0,1256xm840,-1307v298,292,299,808,0,1098v-162,157,-384,218,-690,209r0,-1516v294,-9,530,52,690,209","w":1167},"E":{"d":"930,-1516r0,127r-653,0r0,568r653,0r0,126r-653,0r0,568r653,0r0,127r-780,0r0,-1516r780,0","w":1055},"F":{"d":"838,-1516r0,127r-561,0r0,568r561,0r0,126r-561,0r0,695r-127,0r0,-1516r688,0","w":963,"k":{".":417,",":390}},"G":{"d":"254,-758v0,348,299,648,646,648v153,0,286,-45,397,-135r0,-460r127,0r0,509v-149,142,-323,213,-524,213v-417,0,-775,-358,-775,-775v0,-417,359,-775,775,-775v201,0,381,72,540,217r-95,87v-132,-117,-280,-176,-445,-176v-347,0,-646,300,-646,647","w":1565},"H":{"d":"277,-660r0,660r-127,0r0,-1516r127,0r0,730r572,0r0,-730r127,0r0,1516r-127,0r0,-660r-572,0","w":1126},"I":{"d":"297,-1516r0,1516r-127,0r0,-1516r127,0","w":467},"J":{"d":"415,-114v89,2,158,-72,158,-173r0,-1229r127,0r0,1242v5,160,-132,287,-285,287v-157,0,-294,-134,-290,-290r126,-33v-4,119,61,194,164,196","w":855},"K":{"d":"277,-727r0,727r-127,0r0,-1516r127,0r0,583r437,-583r161,0r-458,615r584,901r-155,0r-512,-798","w":1090},"L":{"d":"150,0r0,-1516r127,0r0,1389r570,0r0,127r-697,0","w":937,"k":{"Y":278,"V":278,"T":120}},"M":{"d":"295,-1516r541,935r539,-935r145,0r-19,34r0,1482r-127,0r0,-1262r-538,932r-540,-932r0,1262r-126,0r0,-1482r-20,-34r145,0","w":1670},"N":{"d":"150,-1516r126,0r721,1249r0,-1249r127,0r0,1516r-117,0r-730,-1262r0,1262r-127,0r0,-1516","w":1274},"O":{"d":"902,-1537v418,0,778,359,778,777v0,418,-360,777,-778,777v-418,0,-777,-359,-777,-777v0,-418,359,-777,777,-777xm1551,-760v0,-349,-300,-649,-649,-649v-348,0,-648,301,-648,649v0,349,300,650,648,650v349,0,649,-301,649,-650","w":1805},"P":{"d":"1007,-1014v0,271,-232,511,-502,503r-228,0r0,511r-127,0r0,-1516r410,0v243,27,447,244,447,502xm880,-1014v0,-201,-174,-374,-375,-374r-228,0r0,750r228,0v201,6,375,-174,375,-376","w":1062,"k":{".":516,",":489}},"Q":{"d":"1551,-760v0,-349,-300,-649,-649,-649v-348,0,-648,301,-648,649v0,349,300,650,648,650v349,0,649,-301,649,-650xm1004,75v-93,0,-155,64,-161,159r-127,0v9,-130,59,-192,149,-249r-63,32v-149,-1,-299,-78,-449,-228v-152,-152,-228,-334,-228,-549v0,-418,359,-777,777,-777v418,0,778,359,778,777v0,215,-76,397,-228,549v-110,110,-212,175,-307,195r126,68v69,34,80,47,135,53v70,-8,113,-48,113,-128r128,0v-5,119,-47,174,-125,223v-35,22,-74,31,-114,31v-142,0,-264,-156,-404,-156","w":1805},"R":{"d":"880,-1014v0,-201,-174,-374,-375,-374r-228,0r0,750r228,0v201,6,375,-174,375,-376xm560,-1516v243,27,447,244,447,502v0,139,-49,258,-147,356v-68,68,-136,110,-204,127r345,531r-155,0r-341,-511r-228,0r0,511r-127,0r0,-1516r410,0","w":1062},"S":{"d":"505,-108v179,2,336,-154,333,-334v-3,-196,-159,-316,-313,-374v-182,-68,-348,-169,-354,-385v-5,-177,155,-332,334,-332v152,0,279,99,318,235r-115,45v-30,-90,-101,-154,-203,-156v-112,-2,-211,96,-207,208v5,141,107,209,226,254v213,81,439,238,439,505v0,247,-212,459,-458,459v-234,0,-428,-181,-455,-402r121,-44v15,182,153,318,334,321","w":1013},"T":{"d":"549,-1389r0,1389r-126,0r0,-1389r-373,0r0,-127r872,0r0,127r-373,0","w":972,"k":{"y":154,"w":229,"u":229,"s":194,"r":229,"o":169,"i":204,"e":169,"c":169,"a":204,"O":141,"A":129,";":194,":":204,".":179,"-":204,",":152}},"U":{"d":"653,-115v202,0,375,-174,375,-374r0,-1027r127,0r0,1081v-27,244,-243,448,-502,448v-270,0,-503,-233,-503,-502r0,-1027r128,0r0,1027v-6,200,175,374,375,374","w":1305},"V":{"d":"184,-1516r445,1222r444,-1222r136,0r-580,1592r-579,-1592r134,0","w":1259,"k":{"o":110,"e":110,"a":145,"A":290,";":103,":":113,".":309,"-":145,",":313}},"W":{"d":"510,-114v97,0,189,-61,228,-134r0,-1268r127,0r0,1268v38,74,132,134,227,134v136,0,258,-119,258,-256r0,-1146r127,0r0,1154v1,201,-181,375,-385,375v-115,0,-216,-52,-291,-129v-75,76,-176,129,-291,129v-205,0,-386,-175,-385,-375r0,-1154r127,0r0,1146v-4,137,122,256,258,256","w":1602},"X":{"d":"50,0r479,-831r-395,-685r145,0r322,559r324,-559r146,0r-397,685r481,831r-146,0r-408,-705r-406,705r-145,0","w":1205},"Y":{"d":"572,-611r-522,-905r146,0r440,763r440,-763r146,0r-523,905r0,611r-127,0r0,-611","w":1272,"k":{"u":183,"q":290,"p":183,"o":280,"e":249,"a":315,"A":272,";":273,":":284,".":322,"-":315,",":295}},"Z":{"d":"952,-1389r-786,0r0,-127r1005,0r-803,1389r787,0r0,127r-1005,0","w":1321},"[":{"d":"252,218r202,0r0,127r-329,0r0,-1861r329,0r0,127r-202,0r0,1607","w":579},"\\":{"d":"779,0r-142,0r-687,-1516r143,0","w":729},"]":{"d":"327,-1389r-202,0r0,-127r329,0r0,1861r-329,0r0,-127r202,0r0,-1607","w":579},"^":{"d":"531,-1516r309,535r-147,0r-223,-385r-223,385r-147,0r310,-535r121,0","w":939},"_":{"d":"25,-16r964,0r0,126r-964,0r0,-126","w":1014},"`":{"d":"378,-1228r188,216r-133,0r-283,-216r228,0","w":716},"a":{"d":"125,-501v0,-284,244,-528,527,-528v146,0,275,55,388,165r0,-83r127,0r0,947r-127,0r0,-139v-113,110,-242,165,-388,165v-283,0,-527,-244,-527,-527xm652,-107v190,0,360,-148,388,-315r0,-159v-28,-168,-199,-316,-388,-316v-213,0,-396,183,-396,396v0,213,183,394,396,394","w":1317},"b":{"d":"1191,-501v0,283,-243,527,-527,527v-145,0,-274,-55,-387,-164r0,138r-127,0r0,-1516r127,0r0,650v113,-109,242,-163,387,-163v284,0,527,244,527,528xm664,-897v-188,0,-387,143,-387,311r0,169v30,165,199,310,387,310v213,0,396,-181,396,-394v0,-213,-183,-396,-396,-396","w":1316},"c":{"d":"617,-107v129,0,247,-64,318,-158r129,46v-95,146,-256,245,-447,245v-283,0,-527,-244,-527,-528v0,-283,244,-527,527,-527v190,0,353,100,447,243r-129,48v-71,-95,-188,-159,-318,-159v-212,0,-395,183,-395,395v0,212,183,395,395,395","w":1154},"d":{"d":"125,-501v0,-284,244,-528,527,-528v146,0,275,55,388,165r0,-652r127,0r0,1516r-127,0r0,-139v-113,110,-242,165,-388,165v-283,0,-527,-244,-527,-527xm652,-107v190,0,360,-148,388,-315r0,-159v-28,-168,-199,-316,-388,-316v-213,0,-396,183,-396,396v0,213,183,394,396,394","w":1317},"e":{"d":"90,-502v0,-283,244,-527,527,-527v164,0,318,79,404,187r-650,650v63,57,145,85,246,85v129,0,247,-64,318,-158r129,46v-95,146,-256,245,-447,245v-283,0,-527,-244,-527,-528xm617,-897v-212,0,-395,183,-395,395v0,90,21,162,63,217r549,-549v-55,-42,-127,-63,-217,-63","w":1154},"f":{"d":"464,-1317v-73,-2,-155,72,-155,153r0,217r184,0r0,126r-184,0r0,821r-127,0r0,-821r-92,0r0,-126r92,0r0,-224v2,-141,130,-267,274,-267v37,0,82,9,137,28r-41,117v-37,-16,-67,-24,-88,-24","w":534},"g":{"d":"652,-106v188,0,387,-141,387,-309r0,-171v-30,-166,-199,-311,-387,-311v-213,0,-396,183,-396,396v0,213,183,395,396,395xm326,4v73,93,188,158,318,158v109,0,202,-39,279,-116v70,-70,107,-129,110,-177r-7,2v-103,103,-228,155,-374,155v-283,0,-527,-244,-527,-527v0,-284,244,-527,527,-527v146,0,275,55,388,164r0,-83r127,0r0,724v8,279,-244,517,-523,517v-190,0,-354,-100,-447,-244","w":1321},"h":{"d":"507,-875v-97,0,-195,66,-230,139r0,736r-127,0r0,-1516r127,0r0,586v49,-48,126,-72,230,-72v220,0,384,163,385,375r0,627r-127,0r0,-619v4,-137,-122,-256,-258,-256","w":1042},"i":{"d":"293,-947r0,947r-127,0r0,-947r127,0xm230,-1268v56,0,105,48,105,104v0,57,-49,105,-105,105v-56,0,-105,-48,-105,-105v0,-56,49,-104,105,-104","w":460},"j":{"d":"49,85v74,-9,111,-44,111,-105r0,-927r127,0r0,925v0,143,-79,221,-238,234r0,-127xm224,-1268v56,0,105,48,105,104v0,57,-49,105,-105,105v-56,0,-105,-48,-105,-105v0,-56,49,-104,105,-104","w":479},"k":{"d":"659,-947r-242,300r366,647r-154,0r-297,-544r-55,69r0,475r-127,0r0,-1332r127,0r0,654r218,-269r164,0","w":833},"l":{"d":"277,-1516r0,1516r-127,0r0,-1516r127,0","w":427},"m":{"d":"440,-874v-84,0,-163,68,-163,148r0,726r-127,0r0,-947r127,0r0,-9v31,-30,85,-45,163,-45v90,0,172,44,226,106v56,-60,136,-106,227,-106v155,0,290,130,290,281r0,720r-127,0r0,-741v-4,-62,-87,-133,-163,-133v-89,0,-164,76,-164,168r0,706r-126,0r-1,-741v-4,-62,-87,-133,-162,-133","w":1333},"n":{"d":"518,-875v-104,0,-208,78,-241,156r0,719r-127,0r0,-947r127,0r0,27v55,-55,135,-82,241,-82v220,0,384,163,385,375r0,627r-126,0r0,-619v4,-137,-123,-256,-259,-256","w":1053},"o":{"d":"90,-501v0,-284,244,-528,527,-528v284,0,527,244,527,528v0,283,-243,527,-527,527v-283,0,-527,-244,-527,-527xm617,-897v-213,0,-396,183,-396,396v0,213,183,394,396,394v213,0,396,-181,396,-394v0,-213,-183,-396,-396,-396","w":1234},"p":{"d":"1191,-501v0,283,-243,527,-527,527v-145,0,-274,-55,-387,-164r0,483r-127,0r0,-1292r127,0r0,81v113,-108,242,-162,387,-162v284,0,527,243,527,527xm664,-897v-188,0,-387,143,-387,311r0,169v30,166,199,311,387,311v213,0,396,-182,396,-395v0,-213,-183,-396,-396,-396","w":1291},"q":{"d":"100,-501v0,-284,244,-527,527,-527v146,0,275,55,388,164r0,-83r127,0r0,1292r-127,0r0,-484v-113,110,-242,165,-388,165v-283,0,-527,-244,-527,-527xm627,-106v189,0,360,-148,388,-316r0,-159v-28,-168,-199,-316,-388,-316v-213,0,-396,183,-396,396v0,213,183,395,396,395","w":1292},"r":{"d":"561,-835v-155,10,-284,189,-284,347r0,488r-127,0r0,-947r127,0r0,116v92,-88,187,-134,284,-139r0,135","w":611},"s":{"d":"405,-105v88,2,170,-75,164,-164v-8,-114,-62,-137,-163,-199v-126,-76,-212,-119,-220,-269v-7,-128,111,-240,238,-240v127,0,237,99,228,232r-112,45v-15,-99,-30,-143,-116,-149v-94,-6,-150,124,-79,191v50,48,228,141,265,184v52,60,84,126,84,205v0,157,-133,291,-289,291v-157,0,-294,-134,-290,-290r126,-33v-4,120,61,193,164,196","w":799},"t":{"d":"274,-947r0,-385r127,0r0,385r184,0r0,126r-184,0r0,821r-127,0r0,-821r-184,0r0,-126r184,0","w":675},"u":{"d":"929,-362v0,213,-166,375,-384,375v-230,0,-395,-157,-395,-375r0,-587r127,0r0,579v-2,141,123,256,267,256v136,0,258,-119,258,-256r0,-579r127,0r0,587","w":1079},"v":{"d":"528,-225r334,-722r145,0r-479,1001r-478,-1001r145,0","w":1057,"k":{".":170,",":174}},"w":{"d":"440,-114v83,0,163,-67,163,-148r0,-685r126,0r0,666v-3,91,76,167,164,167v76,0,163,-71,163,-133r0,-700r127,0r0,679v-2,152,-136,281,-290,281v-80,0,-155,-35,-226,-106v-71,71,-147,106,-227,106v-154,0,-290,-130,-290,-281r0,-679r127,0r0,700v5,61,87,133,163,133","w":1333},"x":{"d":"764,-947r-248,429r299,518r-147,0r-223,-386r-223,386r-147,0r300,-518r-248,-429r146,0r172,297r172,-297r147,0","w":889},"y":{"d":"313,345r-129,0r254,-534r-363,-758r143,0r286,617r286,-617r141,0","w":1007,"k":{".":189,",":194}},"z":{"d":"616,-808r-450,0r0,-127r669,0r-467,808r486,0r0,127r-704,0","w":1004},"{":{"d":"394,15v2,-107,31,-233,2,-340v-27,-100,-130,-189,-231,-204r0,-113v98,-14,205,-105,231,-204v28,-107,0,-234,-2,-341v-4,-192,105,-317,284,-329v13,0,32,2,57,6r0,114v-158,-32,-232,75,-229,227v2,67,19,132,18,196v-4,186,-69,316,-192,388v123,71,189,201,192,387v1,64,-16,128,-18,196v-5,154,74,254,229,229r0,112v-25,4,-44,6,-57,6v-179,-12,-288,-138,-284,-330","w":861},"|":{"d":"277,-1516r0,1861r-127,0r0,-1861r127,0","w":427},"}":{"d":"506,-1187v-3,105,-30,234,-2,341v26,101,130,189,231,204r0,113v-98,14,-206,104,-231,204v-27,107,-1,235,2,340v5,194,-105,317,-284,330v-13,0,-32,-2,-57,-6r0,-112v158,26,229,-76,229,-229v0,-69,-18,-132,-17,-196v3,-186,69,-316,192,-387v-123,-73,-188,-201,-192,-388v-1,-64,17,-127,17,-196v0,-153,-73,-259,-229,-227r0,-114v25,-4,44,-6,57,-6v178,13,289,135,284,329","w":861},"~":{"d":"369,-803v-85,0,-114,71,-117,169r-127,-20v7,-142,72,-235,181,-265v118,-33,186,12,325,86v114,61,192,97,240,97v84,0,116,-68,116,-169r129,20v-9,141,-71,235,-181,265v-119,33,-186,-12,-325,-86v-115,-62,-194,-97,-241,-97","w":1241}}});
/*!
 * The following copyright notice may not be removed under any circumstances.
 * 
 * Copyright:
 * Caviar Dreams © Lauren Thompson (Nymphont) 2010. All rights reserved.
 * 
 * Description:
 * A geometric sans serif wirh a dastardly angled lowercase letter e, and those
 * w's with those lovely letter lumps. Extreme round overshoot may be disturbing to
 * some viewers. Viewer discretin is advised.
 * 
 * Designer:
 * Lauren Thompson
 */
Cufon.registerFont({"w":1250,"face":{"font-family":"Caviar","font-weight":300,"font-style":"italic","font-stretch":"normal","units-per-em":"2048","panose-1":"2 11 2 2 2 2 4 9 5 4","ascent":"1638","descent":"-410","x-height":"27","bbox":"-50 -1717 1939.44 375","underline-thickness":"150","underline-position":"-142","slope":"-11","unicode-range":"U+0020-U+007E"},"glyphs":{" ":{"w":708},"\u00a0":{"w":708},"!":{"d":"178,-139v58,-51,155,-20,141,63v-12,66,-114,126,-165,64v-34,-40,-9,-98,24,-127xm569,-1600r-258,1324r-90,0r258,-1324r90,0","w":430},"\"":{"d":"319,-997r117,-600r90,0r-117,600r-90,0xm554,-997r117,-600r90,0r-117,600r-90,0","w":575},"#":{"d":"955,-985r230,0r197,-445r90,0r-197,445r445,0r-41,90r-445,0r-102,230r445,0r-40,90r-445,0r-197,445r-90,0r197,-445r-230,0r-197,445r-90,0r197,-445r-445,0r40,-90r445,0r102,-230r-445,0r41,-90r445,0r197,-445r90,0xm1144,-895r-230,0r-102,230r230,0","w":1653},"$":{"d":"722,-856r-129,667v156,-23,305,-168,332,-319v32,-177,-83,-288,-203,-348xm740,-1413v-144,21,-279,207,-176,349v21,29,53,54,93,79xm639,-891v-120,-57,-223,-152,-194,-319v24,-137,165,-274,312,-289r32,-163r90,0r-32,165v94,15,172,89,185,189r-84,31v-10,-67,-58,-118,-118,-133r-90,464v161,67,311,212,270,438v-36,195,-228,382,-434,406r-28,140r-90,0r27,-139v-170,-8,-309,-159,-299,-344r88,-30v-16,153,91,277,228,288","w":1011},"%":{"d":"1362,-1314r-1173,1311r-64,-51r1173,-1311xm547,-1215v123,0,210,103,186,231v-22,117,-144,231,-276,231v-122,0,-210,-103,-186,-231v22,-117,144,-231,276,-231xm623,-1086v-48,-61,-143,-49,-203,0v-55,46,-91,138,-40,204v47,61,144,50,204,0v55,-46,91,-137,39,-204xm1030,-615v122,0,211,103,186,231v-22,117,-144,231,-276,231v-122,0,-211,-103,-186,-231v22,-117,144,-231,276,-231xm1106,-486v-48,-61,-144,-50,-203,0v-55,46,-92,138,-40,204v47,61,143,50,203,0v55,-46,92,-138,40,-204","w":1221},"&":{"d":"1073,-1369v-17,-92,-99,-162,-204,-162v-201,0,-391,241,-261,427v66,94,115,118,257,122r-17,84r-72,2v-271,44,-473,202,-525,440v-46,212,107,386,311,386v173,0,351,-130,417,-261v-61,-18,-122,-135,-180,-169v-70,-41,-155,22,-152,102v2,57,57,69,121,59r-25,82v-114,30,-205,-45,-182,-166v22,-116,164,-221,294,-152v35,19,121,137,159,157v95,50,199,-25,216,-112v18,-95,-62,-151,-159,-121r16,-89v140,-34,262,61,230,210v-25,115,-121,207,-253,215v-79,167,-301,334,-519,334v-251,0,-435,-213,-382,-475v47,-231,243,-424,477,-493v-93,-48,-195,-159,-158,-333v35,-168,211,-337,404,-337v138,0,255,91,274,218","w":1304},"'":{"d":"319,-997r117,-600r90,0r-117,600r-90,0","w":340},"(":{"d":"919,-1628v-304,139,-508,432,-585,828v-80,412,24,699,263,832r-17,85v-104,-39,-189,-113,-255,-223v-103,-170,-126,-401,-69,-694v57,-293,169,-524,338,-694v109,-110,224,-184,343,-223","w":703},")":{"d":"433,-1717v291,118,419,465,325,917v-60,293,-170,524,-339,694v-109,110,-223,184,-342,223r17,-85v304,-143,508,-433,586,-832v80,-410,-23,-700,-264,-828","w":703},"*":{"d":"445,-1384r174,-122r52,74r-193,135r193,135r-52,74r-174,-122r0,213r-90,0r0,-214r-175,123r-52,-74r193,-135r-193,-135r52,-74r175,123r0,-214r90,0r0,213","w":800},"+":{"d":"480,-547r-355,0r0,-90r355,0r0,-355r90,0r0,355r355,0r0,90r-355,0r0,355r-90,0r0,-355","w":1050},",":{"d":"311,-166r-260,385r-84,0r178,-385r166,0","w":379},"-":{"d":"248,-637r590,0r-17,90r-590,0","w":840,"k":{"o":-38,"f":-38,"Y":131,"X":73,"W":55,"V":83,"T":149,"R":-57,"P":-57,"O":-75,"L":-57,"K":-57,"J":-114,"H":-57,"G":-75,"F":-57,"D":-57,"C":-38,"B":-57,"A":-38}},"\u00ad":{"d":"248,-637r590,0r-17,90r-590,0","w":840},".":{"d":"154,-139v58,-51,154,-20,140,63v-12,66,-115,126,-166,64v-34,-40,-7,-98,26,-127","w":380},"\/":{"d":"985,-1600r103,0r-1036,1600r-102,0","w":727},"0":{"d":"1283,-1051v55,-250,-127,-453,-366,-453v-258,0,-498,225,-542,453r-103,530v-53,250,126,453,366,453v258,0,498,-225,542,-453xm1275,-521v-43,278,-343,549,-656,549v-290,0,-501,-246,-442,-549r103,-530v43,-278,344,-549,656,-549v291,0,501,246,442,549"},"1":{"d":"1028,-1600r-311,1600r-90,0r280,-1442r-95,0r154,-158r62,0"},"2":{"d":"388,-1219v63,-202,304,-403,549,-403v253,0,439,215,384,478v-28,131,-93,246,-203,344v-167,150,-391,280,-586,410v-121,80,-207,179,-257,300r841,0r-17,90r-943,0v71,-207,170,-351,296,-434v211,-140,426,-264,612,-433v88,-80,141,-172,163,-277v44,-212,-105,-383,-308,-383v-202,0,-402,168,-446,341"},"3":{"d":"323,-414v-20,192,127,341,313,341v218,0,428,-189,458,-383v39,-254,-114,-396,-351,-437r-75,-2r18,-90v156,-5,203,-36,304,-121v94,-78,154,-236,66,-350v-38,-49,-92,-72,-160,-72v-109,0,-222,80,-265,163r-79,-34v57,-116,214,-223,362,-223v181,0,314,154,276,340v-19,94,-58,170,-119,224v-61,54,-116,90,-163,108v190,61,323,252,280,494v-43,241,-297,478,-570,478v-226,0,-403,-174,-393,-403"},"4":{"d":"1144,-1600r90,0r-203,1042r153,0r-17,90r-153,0r-91,468r-90,0r91,-468r-660,0xm1106,-1406r-670,848r505,0"},"5":{"d":"236,-281v73,179,365,252,578,141v165,-86,297,-221,335,-422v43,-230,-77,-398,-248,-457v-151,-52,-293,-28,-464,21r-60,-63r283,-507r6,-32r500,0r-17,90r-425,0r-227,407v125,-43,315,-58,448,-6v139,55,234,146,281,284v52,155,20,312,-42,433v-76,149,-188,263,-341,336v-146,70,-283,90,-441,40v-113,-36,-194,-101,-244,-194"},"6":{"d":"818,-975v-258,0,-501,226,-543,454v-46,251,126,453,366,453v258,0,500,-225,542,-453v47,-251,-125,-454,-365,-454xm623,28v-284,0,-501,-239,-446,-532r-6,0v53,-235,147,-428,283,-577v141,-156,328,-339,523,-519r124,0r-52,50v-213,196,-385,367,-516,513v-28,31,-54,63,-78,97v219,-174,571,-185,739,30v85,108,110,236,84,389v-47,277,-342,549,-655,549"},"7":{"d":"1030,-1046v-213,196,-385,367,-516,513v-131,146,-220,324,-267,533r-94,0v53,-235,147,-428,283,-577v136,-149,299,-312,490,-488v191,-176,312,-324,362,-445r-841,0r17,-90r943,0v-38,173,-164,358,-377,554"},"8":{"d":"289,-456v-47,228,122,410,351,381v246,25,462,-174,497,-381v42,-249,-110,-393,-339,-435v-262,46,-461,201,-509,435xm621,20v-280,0,-480,-195,-426,-476v44,-230,244,-427,473,-494v-41,-18,-82,-54,-122,-108v-40,-54,-51,-129,-32,-224v35,-181,217,-340,444,-340v181,0,315,154,276,340v-20,94,-59,170,-120,224v-61,54,-115,90,-162,108v190,62,325,253,279,494v-48,251,-304,476,-610,476xm1138,-1282v30,-152,-79,-246,-234,-246v-141,0,-268,122,-294,246v-27,128,72,241,145,273v19,7,40,13,63,17v99,-17,134,-44,216,-114v57,-48,91,-108,104,-176"},"9":{"d":"738,-597v258,0,500,-226,542,-454v47,-251,-127,-453,-366,-453v-258,0,-500,225,-542,453v-47,251,126,454,366,454xm933,-1600v284,0,501,239,446,532r6,0v-53,235,-147,428,-283,577v-141,156,-328,339,-523,519r-124,0v16,-17,33,-33,51,-50v213,-196,386,-367,517,-513v28,-31,54,-63,78,-97v-220,173,-571,185,-739,-30v-85,-108,-111,-236,-85,-389v47,-277,343,-549,656,-549"},":":{"d":"178,-139v58,-51,155,-20,141,63v-12,66,-114,126,-165,64v-34,-40,-9,-98,24,-127xm298,-756v58,-51,155,-20,141,63v-12,66,-114,126,-165,64v-34,-40,-9,-98,24,-127","w":430},";":{"d":"384,-166r-260,385r-84,0r178,-385r166,0xm298,-756v58,-50,155,-20,141,63v-11,67,-114,126,-165,64v-33,-40,-10,-98,24,-127","w":477},"\u037e":{"d":"384,-166r-260,385r-84,0r178,-385r166,0xm298,-756v58,-50,155,-20,141,63v-11,67,-114,126,-165,64v-33,-40,-10,-98,24,-127","w":477},"<":{"d":"1249,-145r-1149,-418r1149,-418r0,96r-886,322r886,322r0,96","w":1349},"=":{"d":"125,-797r800,0r0,90r-800,0r0,-90xm125,-477r800,0r0,90r-800,0r0,-90","w":1050},">":{"d":"100,-241r886,-322r-886,-322r0,-96r1149,418r-1149,418r0,-96","w":1349},"?":{"d":"747,-1452v-158,0,-264,110,-298,246r-87,-4v30,-151,153,-269,286,-310v230,-71,435,68,390,319v-9,49,-30,98,-63,146v-57,85,-143,159,-249,237v-136,100,-253,220,-294,395v-10,42,-9,86,-2,129r-89,29v-19,-158,22,-258,91,-362v74,-112,181,-200,298,-289v112,-85,189,-154,217,-286v31,-147,-60,-250,-200,-250xm290,-139v58,-51,154,-20,140,63v-12,66,-115,126,-166,64v-34,-40,-7,-98,26,-127","w":956},"@":{"d":"1207,-615v-4,-124,-105,-215,-230,-215v-160,0,-308,141,-334,282v-28,154,77,279,225,279v136,0,292,-100,314,-214xm1147,-313v-97,85,-196,127,-297,127v-190,0,-332,-164,-294,-362v35,-183,228,-365,435,-365v101,0,183,42,247,127r23,-114r81,0r-126,648v6,29,21,43,46,43v29,0,78,-37,144,-111v66,-74,105,-149,122,-227v71,-333,-170,-608,-490,-608v-345,0,-667,304,-724,608v-63,335,168,606,488,606v115,0,202,-16,261,-49r45,60v-89,47,-197,70,-322,70v-362,0,-625,-309,-555,-687v64,-345,433,-689,823,-689v364,0,626,310,553,689v-27,138,-222,423,-378,417v-69,-2,-110,-41,-98,-102","w":1626},"A":{"d":"1027,-703r-114,-671r-374,671r488,0xm1042,-613r-554,0r-342,613r-96,0r914,-1637r277,1637r-95,0","w":1291,"k":{"t":-38,"f":-38,"Y":36,"W":36,"V":36,"T":131,";":-38,":":-38,".":-65,",":-65}},"B":{"d":"461,-1600r284,-1v157,-5,274,134,240,298v-17,82,-73,160,-172,231v72,15,132,61,186,132v83,109,109,236,84,389v-44,267,-326,551,-623,551r-310,0xm435,-1005r-178,915r220,1v241,-13,470,-241,511,-462v47,-251,-127,-462,-366,-454r-187,0xm534,-1510r-80,409r217,0v112,-10,208,-96,228,-202v23,-121,-56,-207,-171,-207r-194,0","w":1066,"k":{"Y":36,"-":-57}},"C":{"d":"1476,-255r56,61v-183,142,-381,213,-592,213v-434,0,-755,-367,-660,-819v47,-225,161,-419,352,-579v191,-160,399,-240,626,-240v211,0,381,71,510,213r-80,62v-114,-122,-263,-183,-448,-183v-201,0,-386,71,-555,213v-169,142,-271,314,-313,514v-85,401,202,728,586,728v185,0,357,-61,518,-183","w":1595,"k":{"Y":36,"-":-47}},"D":{"d":"533,-1506r-275,1413v488,15,830,-325,905,-707v40,-200,1,-372,-113,-515v-104,-129,-276,-192,-517,-191xm461,-1600v31,1,74,2,97,2v263,0,453,73,569,218v129,161,171,354,128,580v-84,429,-472,814,-1015,798r0,2r-90,0","w":1199,"k":{"Y":55,"W":36,"V":36,"A":36,"-":-65}},"E":{"d":"1261,-1600r-17,90r-710,0r-130,665r710,0r-17,90r-710,0r-130,665r710,0r-17,90r-800,0r311,-1600r800,0","w":1075},"F":{"d":"1161,-1600r-17,90r-610,0r-130,665r610,0r-17,90r-610,0r-147,755r-90,0r311,-1600r700,0","w":975,"k":{"u":73,"r":73,"o":36,"i":36,"e":36,"a":36,"A":112,";":83,":":83,".":405,"-":63,",":405}},"G":{"d":"1527,-199v-180,145,-376,218,-587,218v-434,0,-755,-367,-660,-819v47,-225,161,-419,352,-579v191,-160,399,-240,626,-240v211,0,381,71,510,213r-80,62v-114,-122,-263,-183,-448,-183v-201,0,-386,71,-555,213v-169,142,-271,314,-313,514v-85,401,202,728,586,728v172,0,334,-53,485,-159r95,-488r90,0","w":1620,"k":{"Y":55,"T":36,"-":-47}},"H":{"d":"379,-717r-139,717r-90,0r311,-1600r90,0r-154,793r670,0r154,-793r90,0r-311,1600r-90,0r139,-717r-670,0","w":1150,"k":{".":36,",":36}},"I":{"d":"571,-1600r-311,1600r-90,0r311,-1600r90,0","w":430},"J":{"d":"756,-274v-24,152,-177,288,-342,288v-147,0,-267,-131,-238,-273r93,-23v-25,115,54,208,162,206v118,-2,216,-97,238,-213r254,-1311r90,0","w":857},"K":{"d":"391,-775r-151,775r-90,0r311,-1600r90,0r-132,681r643,-681r116,0r-605,644r434,956r-111,0r-396,-884","w":1097,"k":{"Y":-75,"T":-38,"A":-75}},"L":{"d":"150,0r311,-1600r90,0r-294,1510r620,0r-17,90r-710,0","w":950,"k":{"y":36,"o":73,"e":73,"a":73,"Y":112,"W":112,"V":112,"U":36,"T":73,"O":112,"A":-75,"-":36}},"M":{"d":"564,-1600r399,1040r802,-1040r103,0r-5,7r-310,1593r-90,0r279,-1437r-814,1054r-405,-1054r-279,1437r-90,0r310,-1593r-3,-7r103,0","w":1707},"N":{"d":"461,-1600r99,0r545,1423r277,-1423r90,0r-311,1600r-90,0r-552,-1437r-279,1437r-90,0","w":1311},"O":{"d":"1262,-1623v434,0,755,369,661,821v-47,226,-162,420,-353,580v-191,160,-400,241,-627,241v-434,0,-757,-369,-662,-821v47,-226,161,-420,353,-580v192,-160,401,-241,628,-241xm1244,-1531v-201,0,-387,71,-557,213v-170,142,-272,315,-314,516v-85,401,202,730,587,730v201,0,387,-71,557,-214v170,-143,272,-315,314,-516v85,-402,-202,-729,-587,-729","w":1892,"k":{"Y":63,"X":36,"V":36,";":-38,":":-38,".":83,"-":-38,",":83}},"P":{"d":"881,-1600v241,27,414,249,363,522v-49,264,-326,526,-624,523r-272,0r-108,555r-90,0r311,-1600r420,0xm533,-1509r-167,863r272,0v245,3,475,-215,515,-432v44,-238,-121,-431,-348,-431r-272,0","w":1089,"k":{"u":73,"s":36,"r":73,"o":73,"n":73,"i":73,"e":73,"a":73,"W":36,"A":149,";":92,":":92,".":491,"-":159,",":491}},"Q":{"d":"1244,-1531v-201,0,-387,71,-557,213v-170,142,-272,315,-314,516v-85,401,202,730,587,730v201,0,387,-71,557,-214v170,-143,272,-315,314,-516v85,-402,-202,-729,-587,-729xm1097,89v-140,-33,-251,60,-286,165r-91,0v34,-113,110,-188,214,-235v-428,10,-747,-372,-653,-821v47,-226,161,-420,353,-580v192,-160,401,-241,628,-241v434,0,748,367,661,821v-71,372,-418,725,-795,802v70,9,217,136,295,156v106,28,188,-50,212,-133r91,0v-35,124,-134,228,-279,228v-100,0,-123,-36,-218,-96v-60,-38,-104,-59,-132,-66","w":1892},"R":{"d":"533,-1509r-167,863r272,0v245,3,475,-215,515,-432v44,-238,-121,-431,-348,-431r-272,0xm881,-1600v241,27,415,249,363,522v-44,235,-260,455,-495,509r258,569r-111,0r-249,-556r-299,1r-108,555r-90,0r311,-1600r420,0","w":1089,"k":{"u":36,"o":36,"e":36,"a":36,"W":36,"T":36,"A":55,";":36,":":36,".":73,"-":55,",":73}},"S":{"d":"215,-410v-20,190,130,340,317,340v220,0,427,-192,461,-386v39,-225,-111,-364,-273,-430v-105,-43,-190,-88,-240,-156v-181,-247,82,-577,353,-577v139,0,254,91,273,218r-87,32v-16,-93,-99,-162,-203,-162v-142,0,-279,122,-298,249v-25,166,79,244,203,299v115,52,215,106,285,193v75,92,97,203,75,334v-41,240,-297,475,-567,475v-223,0,-401,-173,-390,-398","w":1042,"k":{"A":-57}},"T":{"d":"839,-1510r-294,1510r-90,0r294,-1510r-405,0r17,-90r900,0r-17,90r-405,0","w":1000,"k":{"y":131,"w":167,"u":167,"s":149,"r":131,"o":167,"e":167,"c":167,"a":167,"C":73,"A":149,";":131,":":131,".":264,"-":188,",":264}},"U":{"d":"1415,-1600r91,0r-223,1150v-71,237,-330,464,-612,464v-277,0,-478,-233,-422,-522r212,-1092r91,0r-212,1092v-52,237,120,431,348,431v245,0,473,-215,515,-431","w":1345},"V":{"d":"456,-1600r233,1374r767,-1374r96,0r-914,1637r-277,-1637r95,0","w":1291,"k":{"y":36,"u":112,"o":112,"e":112,"a":112,"A":73,";":63,":":63,".":339,"-":167,",":339}},"W":{"d":"864,-142v-83,87,-220,156,-346,156v-205,0,-361,-173,-321,-384r239,-1230r90,0r-237,1222v-36,165,88,302,246,302v118,0,244,-78,303,-164r264,-1360r90,0r-264,1360v32,97,124,164,239,164v170,0,335,-151,364,-302r237,-1222r90,0r-239,1230v-34,194,-248,384,-469,384v-127,0,-230,-62,-286,-156","w":1672,"k":{"y":36,"u":73,"r":83,"o":73,"e":73,"a":73,"A":36,";":45,":":45,".":253,"-":92,",":253}},"X":{"d":"50,0r678,-879r-276,-721r103,0r241,632r489,-632r103,0r-558,721r338,879r-103,0r-303,-790r-610,790r-102,0","w":1218,"k":{"e":36,"O":36,"C":36,"-":102}},"Y":{"d":"726,-647r-365,-953r103,0r326,853r659,-853r103,0r-736,953r-126,647r-90,0","w":1291,"k":{"u":139,"o":139,"i":36,"e":139,"a":149,"A":112,";":102,":":102,".":311,"-":243,",":311}},"Z":{"d":"1316,-1510r-872,0r17,-90r1027,0r-1167,1510r873,0r-17,90r-1027,0","w":1327,"k":{"-":112}},"[":{"d":"159,285r220,0r-17,90r-310,0r384,-1975r310,0r-18,90r-220,0","w":560},"\\":{"d":"777,0r-102,0r-414,-1600r103,0","w":727},"]":{"d":"638,-1510r-220,0r18,-90r310,0r-384,1975r-310,0r17,-90r220,0","w":560},"^":{"d":"513,-1600r308,534r-104,0r-256,-443r-256,443r-105,0r309,-534r104,0","w":921},"_":{"d":"19,30r1000,0r-17,90r-1000,0","w":1050},"`":{"d":"566,-1287r127,187r-84,0r-209,-187r166,0","w":629},"a":{"d":"882,-1071v181,0,329,90,402,228r27,-139r90,0r-191,982r-90,0r39,-200v-113,126,-311,228,-491,228v-290,0,-498,-246,-442,-549v51,-277,344,-550,656,-550xm687,-68v227,0,452,-182,517,-364r34,-178v2,-210,-166,-365,-375,-365v-258,0,-500,226,-542,454v-47,251,126,453,366,453","w":1360},"b":{"d":"680,28v-180,0,-328,-91,-401,-227r-39,199r-90,0r311,-1600r90,0r-147,756v113,-124,310,-227,489,-227v291,0,499,245,442,550v-52,276,-342,549,-655,549xm323,-427v2,205,167,359,375,359v258,0,500,-225,542,-453v47,-251,-125,-454,-365,-454v-225,0,-450,179,-515,360","w":1359},"c":{"d":"652,-68v140,0,288,-71,386,-168r88,34v-113,127,-312,230,-493,230v-290,0,-499,-246,-442,-550v51,-276,344,-549,656,-549v183,0,329,92,404,229r-102,35v-64,-105,-180,-168,-321,-168v-257,0,-499,226,-541,453v-46,250,126,454,365,454","w":1177},"d":{"d":"882,-1071v181,0,329,90,402,228r147,-757r90,0r-311,1600r-90,0r39,-200v-113,126,-311,228,-491,228v-290,0,-498,-246,-442,-549v51,-277,344,-550,656,-550xm687,-68v227,0,452,-182,517,-364r34,-178v2,-210,-166,-365,-375,-365v-258,0,-500,226,-542,454v-47,251,126,453,366,453","w":1360},"e":{"d":"1126,-202v-113,127,-312,230,-493,230v-290,0,-499,-246,-442,-550v51,-276,344,-549,656,-549v162,0,296,70,371,179r-845,708v69,77,162,116,279,116v140,0,288,-71,386,-168xm1083,-885v-168,-144,-434,-103,-601,43v-104,91,-170,195,-195,320v-20,103,-8,194,37,272","w":1177},"f":{"d":"453,-892r-238,1220r-90,0r238,-1220r-100,0r18,-90r100,0r52,-266v36,-164,234,-327,439,-246r-43,80v-135,-65,-286,57,-308,172r-50,260r200,0r-18,90r-200,0","w":523,"k":{".":112,"-":45,",":112}},"g":{"d":"1238,-615v-1,-207,-167,-360,-375,-360v-258,0,-500,226,-542,454v-47,251,126,454,366,454v224,0,477,-169,514,-358xm301,56v65,104,179,168,320,168v245,0,488,-209,534,-419v-114,123,-309,223,-487,223v-290,0,-498,-246,-442,-549v51,-277,344,-549,656,-549v181,0,329,89,402,227r27,-139r90,0r-149,763v-42,274,-342,539,-649,539v-183,0,-330,-92,-404,-230","w":1364},"h":{"d":"461,-1600r90,0r-130,669v153,-139,432,-154,557,-1v59,73,80,165,59,275r-128,657r-90,0r126,-649v36,-165,-88,-302,-246,-302v-119,0,-253,84,-307,170r-152,781r-90,0","w":1059},"i":{"d":"451,-982r-191,982r-90,0r191,-982r90,0xm405,-1304v58,-50,155,-20,141,63v-11,67,-115,126,-166,64v-33,-40,-9,-98,25,-127","w":430},"j":{"d":"22,138v83,-9,132,-55,148,-136r191,-984r90,0r-191,982v-27,141,-112,217,-255,228xm406,-1304v58,-51,155,-19,141,63v-11,66,-115,126,-167,64v-33,-40,-7,-98,26,-127","w":455},"k":{"d":"820,-982r-300,300r253,682r-112,0r-214,-610r-110,109r-97,501r-90,0r272,-1400r90,0r-147,755r339,-337r116,0","w":823,"k":{"u":55,"o":73,"e":73,"a":73}},"l":{"d":"551,-1600r-311,1600r-90,0r311,-1600r90,0","w":390},"m":{"d":"863,-905v59,-71,170,-135,273,-135v151,0,266,125,236,282r-147,758r-90,0r148,-758v19,-107,-61,-192,-164,-192v-116,0,-222,101,-242,206r-145,744r-90,0r148,-758v19,-107,-61,-192,-164,-192v-109,0,-218,89,-237,184r-149,766r-90,0r191,-982r90,0r-5,23v67,-54,139,-81,217,-81v102,0,185,54,220,135","w":1375},"n":{"d":"711,-951v-129,0,-268,98,-323,188r-148,763r-90,0r191,-982r90,0r-12,63v97,-81,200,-122,309,-122v221,0,365,159,321,384r-128,657r-90,0r126,-649v36,-165,-88,-302,-246,-302","w":1071},"o":{"d":"428,-910v224,-196,591,-230,776,0v86,107,111,236,85,389v-47,277,-343,549,-656,549v-290,0,-505,-247,-442,-549v32,-152,111,-279,237,-389xm828,-975v-258,0,-500,226,-542,454v-47,251,126,453,366,453v258,0,500,-225,542,-453v47,-251,-127,-454,-366,-454","w":1278,"k":{"-":-38}},"p":{"d":"679,28v-180,0,-327,-91,-400,-227r-112,574r-90,0r264,-1357r90,0r-27,138v113,-124,310,-226,489,-226v291,0,499,245,442,549v-51,276,-343,549,-656,549xm323,-427v2,206,167,360,375,360v258,0,500,-226,542,-454v47,-251,-127,-454,-366,-454v-226,0,-448,180,-515,360","w":1334},"q":{"d":"857,-1070v181,0,329,89,402,227r27,-139r90,0r-264,1357r-90,0r112,-575v-113,126,-311,228,-491,228v-290,0,-498,-246,-442,-549v51,-277,344,-549,656,-549xm662,-67v227,0,452,-182,517,-365r34,-178v2,-210,-166,-365,-375,-365v-258,0,-500,226,-542,454v-47,251,126,454,366,454","w":1335},"r":{"d":"341,-982r90,0r-35,179v77,-90,238,-206,348,-202r-19,98v-57,3,-121,34,-194,95v-102,85,-169,186,-192,305r-99,507r-90,0","w":599,"k":{"y":-75,"w":-65,"v":-75,"t":-57,"g":36,"f":-75,".":206,"-":112,",":206}},"s":{"d":"723,-771v7,-95,-29,-151,-116,-152v-117,-1,-232,142,-152,249v40,54,218,153,250,200v149,218,-69,498,-303,498v-147,0,-267,-131,-238,-273r93,-23v-25,115,54,206,162,206v162,0,318,-196,210,-345v-16,-22,-52,-55,-110,-94v-67,-44,-117,-75,-139,-106v-126,-172,57,-403,245,-403v120,0,208,95,182,212","w":802},"t":{"d":"480,-982r82,-418r90,0r-82,418r200,0r-17,90r-200,0r-173,892r-90,0r173,-892r-200,0r17,-90r200,0","w":670},"u":{"d":"856,-95v-148,135,-454,153,-575,0v-59,-73,-81,-165,-59,-275r120,-614r90,0r-118,606v-35,170,89,302,255,302v170,0,335,-151,364,-302r118,-606r90,0r-120,614v-23,111,-81,199,-165,275","w":1099},"v":{"d":"564,-164r537,-818r104,0r-678,1009r-286,-1009r104,0","w":1064,"k":{".":196,",":196}},"w":{"d":"712,-120v-61,69,-170,134,-273,134v-151,0,-267,-125,-237,-282r139,-714r90,0r-140,714v-16,106,62,192,165,192v109,0,218,-88,237,-184r140,-722r90,0r-136,700v-25,115,54,206,162,206v110,0,219,-96,238,-192r139,-714r90,0r-139,714v-27,143,-182,282,-345,282v-102,0,-183,-55,-220,-134","w":1375,"k":{".":188,"-":55,",":188}},"x":{"d":"932,-982r-342,443r206,539r-104,0r-170,-443r-342,443r-105,0r417,-539r-170,-443r104,0r133,347r268,-347r105,0","w":871},"y":{"d":"520,-88r-312,463r-88,0r373,-556r-227,-801r102,0r189,704r463,-704r101,0r-601,895r0,-1","w":1005,"k":{".":215,"-":63,",":215}},"z":{"d":"828,-878r-507,0r17,-90r662,0r-679,878r546,0r-17,90r-700,0","w":1000},"{":{"d":"725,-1183v-13,290,-124,481,-336,570v142,69,201,224,159,422v-28,132,-146,371,3,463v40,25,79,32,132,26r-14,74v-192,22,-306,-128,-259,-332v25,-109,74,-234,74,-376v0,-123,-118,-227,-227,-239v-7,0,-14,1,-21,3r16,-81v50,10,83,-8,151,-41v154,-75,239,-228,249,-437v10,-213,72,-357,218,-431v62,-30,112,-44,181,-35r-14,75v-12,-2,-24,-3,-36,-3v-183,14,-268,158,-276,342","w":866},"|":{"d":"240,-1600r0,1975r-90,0r0,-1975r90,0","w":390},"}":{"d":"67,298v210,10,303,-146,312,-340v13,-290,126,-480,336,-571v-143,-67,-201,-224,-159,-421v28,-132,145,-370,-3,-464v-39,-24,-80,-32,-132,-24r15,-75v145,-20,259,77,267,205v11,182,-99,310,-83,503v7,86,44,153,113,195v55,34,86,51,135,41r-16,81v-50,-10,-82,8,-150,41v-153,76,-240,226,-249,437v-9,213,-73,358,-219,431v-61,31,-112,44,-181,35","w":866},"~":{"d":"365,-873v-97,0,-142,84,-150,180r-90,-14v15,-140,89,-253,234,-253v71,0,164,33,279,99v126,72,216,109,273,109v97,0,144,-82,150,-180r91,14v-19,139,-88,253,-235,253v-70,0,-163,-33,-278,-99v-127,-73,-218,-109,-274,-109","w":1277}}});
/*!
 * The following copyright notice may not be removed under any circumstances.
 * 
 * Copyright:
 * Caviar Dreams © Lauren Thompson (Nymphont) 2010. All rights reserved.
 * 
 * Description:
 * A geometric sans serif wirh a dastardly angled lowercase letter e, and those
 * w's with those lovely letter lumps. Extreme round overshoot may be disturbing to
 * some viewers. Viewer discretin is advised.
 * 
 * Designer:
 * Lauren Thompson
 */
Cufon.registerFont({"w":1220,"face":{"font-family":"Caviar","font-weight":500,"font-style":"italic","font-stretch":"normal","units-per-em":"2048","panose-1":"2 11 6 2 2 2 4 9 5 4","ascent":"1638","descent":"-410","x-height":"26","bbox":"-50 -1633 1843.52 345.169","underline-thickness":"150","underline-position":"-142","slope":"-11","unicode-range":"U+0020-U+007E"},"glyphs":{" ":{"w":708,"k":{"Y":60,"W":25,"V":80,"T":25,"A":20}},"\u00a0":{"w":708},"!":{"d":"188,-166v68,-60,181,-22,165,74v-13,77,-134,147,-194,74v-38,-47,-10,-114,29,-148xm585,-1516r-245,1262r-126,0r245,-1262r126,0","w":460},"\"":{"d":"303,-917r116,-596r127,0r-116,596r-127,0xm519,-917r116,-596r127,0r-116,596r-127,0","w":593},"#":{"d":"953,-950r167,0r182,-410r128,0r-182,410r409,0r-57,127r-409,0r-74,167r410,0r-58,127r-409,0r-182,409r-128,0r182,-409r-166,0r-182,409r-129,0r183,-409r-410,0r57,-127r410,0r73,-167r-409,0r57,-127r409,0r182,-410r129,0xm1063,-823r-167,0r-73,167r166,0","w":1598},"$":{"d":"717,-775r-108,554v167,-32,354,-282,214,-462v-35,-43,-70,-74,-106,-92xm691,-1296v-53,15,-130,95,-142,161v-14,77,38,144,78,170xm600,-827v-106,-50,-202,-153,-175,-308v22,-129,164,-269,291,-286r29,-152r127,0r-30,155v85,17,160,96,170,205r-120,45v-8,-60,-41,-106,-75,-123r-74,384v144,59,284,209,246,418v-33,182,-223,369,-404,393r-25,131r-127,0r25,-130v-154,-11,-286,-164,-271,-351r128,-43v-21,144,63,255,167,271","w":992},"%":{"d":"1318,-1236r-1111,1242r-91,-72r1111,-1242xm541,-1162v124,0,212,104,188,235v-22,118,-146,234,-279,234v-125,0,-214,-104,-190,-234v22,-119,146,-235,281,-235xm588,-1006v-91,-96,-267,47,-187,157v92,94,267,-46,187,-157xm986,-610v124,0,213,105,188,235v-22,118,-145,234,-279,234v-125,0,-214,-104,-190,-234v22,-119,146,-235,281,-235xm1033,-454v-91,-96,-267,47,-187,157v92,94,267,-46,187,-157","w":1180},"&":{"d":"1002,-1253v-14,-96,-76,-155,-174,-156v-168,-1,-326,203,-216,358v62,88,98,100,242,104r-23,120r-87,3v-236,38,-412,175,-458,382v-41,184,92,334,268,334v136,0,297,-110,349,-206v-40,-19,-106,-120,-150,-149v-59,-39,-138,53,-84,103v29,12,49,6,100,1r-36,118v-128,40,-235,-38,-206,-170v22,-99,105,-184,223,-184v89,0,111,46,168,110v42,47,49,67,105,72v93,8,164,-121,87,-182v-41,-19,-60,-11,-119,3r23,-127v152,-48,285,51,252,209v-24,114,-120,205,-242,220v-73,147,-293,307,-494,307v-242,0,-415,-205,-369,-459v35,-193,229,-397,400,-456v-11,-5,-36,-33,-75,-86v-39,-53,-48,-125,-32,-217v28,-167,209,-332,398,-332v146,0,256,90,273,235","w":1257},"'":{"d":"303,-917r116,-596r127,0r-116,596r-127,0","w":377},"(":{"d":"900,-1506v-286,127,-466,384,-537,748v-74,378,22,630,245,752r-24,123v-303,-115,-425,-428,-337,-875v85,-432,307,-746,677,-875","w":707},")":{"d":"417,-1633v303,115,425,429,337,875v-85,432,-306,745,-677,875r24,-123v285,-132,466,-385,537,-752v73,-376,-19,-630,-246,-748","w":707},"*":{"d":"472,-1338r144,-100r73,104r-170,119r170,119r-73,104r-144,-101r0,176r-126,0r0,-177r-145,102r-73,-104r170,-119r-170,-119r73,-104r145,101r0,-176r126,0r0,175","w":818},"+":{"d":"452,-503r-327,0r0,-127r327,0r0,-327r126,0r0,327r327,0r0,127r-327,0r0,326r-126,0r0,-326","w":1030},",":{"d":"359,-197r-268,398r-120,0r184,-398r204,0","w":421,"k":{" ":70}},"-":{"d":"248,-630r587,0r-25,127r-587,0","w":837},"\u00ad":{"d":"248,-630r587,0r-25,127r-587,0","w":837},".":{"d":"163,-166v68,-60,181,-22,165,74v-13,77,-134,147,-194,74v-38,-47,-10,-114,29,-148","w":410,"k":{" ":70}},"\/":{"d":"931,-1516r143,0r-982,1516r-142,0","w":729},"0":{"d":"1191,-989v47,-218,-110,-395,-319,-395v-225,0,-434,196,-473,395r-95,488v-48,218,111,394,320,394v225,0,433,-195,472,-394xm1227,-501v-41,267,-328,527,-629,527v-278,0,-482,-236,-425,-527r95,-488v42,-266,330,-527,630,-527v279,0,481,236,424,527","w":1206},"1":{"d":"1064,-1516r-295,1516r-127,0r258,-1327r-110,0r184,-189r90,0","w":1302},"2":{"d":"370,-1129v67,-213,289,-407,538,-407v244,0,424,207,371,462v-26,126,-91,236,-197,331v-155,139,-362,260,-542,380v-106,70,-178,148,-214,236r769,0r-25,127r-915,0v73,-213,169,-357,287,-436v192,-128,395,-243,562,-396v78,-70,125,-152,144,-242v39,-183,-91,-335,-266,-331v-191,4,-349,148,-393,322"},"3":{"d":"363,-433v-22,193,95,322,268,322v188,0,368,-163,394,-331v34,-221,-101,-345,-307,-380r-88,-2r24,-126v157,-4,189,-25,284,-103v80,-66,130,-197,56,-293v-31,-41,-76,-60,-132,-60v-106,2,-188,69,-233,157r-110,-47v63,-133,208,-237,368,-240v177,-4,309,152,271,335v-19,92,-57,166,-117,219v-60,53,-94,81,-101,84v51,18,100,60,149,125v69,95,88,204,67,331v-39,234,-287,462,-550,462v-226,0,-393,-168,-379,-407"},"4":{"d":"1101,-1516r117,0r-187,959r141,0r-24,126r-141,0r-84,431r-127,0r84,-431r-623,0xm1036,-1236r-535,679r403,0","w":1238},"5":{"d":"268,-316v58,121,156,195,316,195v262,0,448,-186,493,-418v40,-202,-68,-350,-218,-400v-141,-47,-262,-23,-425,24r-73,-76r266,-477r10,-48r504,0r-25,127r-397,0r-178,318v97,-28,278,-34,381,8v133,54,224,140,269,272v51,148,19,299,-40,415v-73,143,-181,251,-328,322v-138,67,-272,85,-422,38v-108,-35,-189,-102,-242,-201","w":1219},"6":{"d":"780,-897v-225,0,-435,197,-472,396v-41,219,110,394,319,394v225,0,435,-195,472,-394v41,-219,-110,-396,-319,-396xm601,26v-265,0,-476,-229,-431,-490r-7,0v53,-236,143,-423,269,-563v133,-148,312,-321,494,-489r170,0r-84,83v-196,179,-354,336,-474,470v47,-44,137,-66,268,-66v279,0,479,235,424,528v-50,265,-328,527,-629,527","w":1207},"7":{"d":"1004,-973v-198,182,-355,339,-474,471v-119,132,-201,299,-247,502r-130,0v53,-236,142,-424,269,-564v127,-140,277,-289,452,-450v175,-161,281,-286,318,-375r-768,0r25,-127r912,0v-40,180,-159,361,-357,543"},"8":{"d":"323,-442v-42,199,108,355,307,329v213,22,399,-150,430,-329v37,-214,-97,-341,-294,-377v-227,39,-401,176,-443,377xm1190,-442v-50,259,-302,462,-625,462v-244,0,-425,-207,-372,-462v26,-126,90,-236,197,-331v73,-65,139,-107,197,-125v-7,-3,-30,-31,-69,-84v-39,-53,-50,-126,-32,-219v33,-178,213,-335,435,-335v179,0,309,151,272,335v-19,93,-57,166,-117,219v-60,53,-94,81,-102,84v51,18,101,60,149,125v69,95,92,205,67,331xm1060,-1201v25,-128,-66,-205,-197,-205v-167,0,-321,200,-214,353v43,61,73,83,143,96v80,-15,112,-38,180,-96v48,-41,77,-91,88,-148","w":1211},"9":{"d":"716,-593v225,0,437,-197,473,-396v40,-219,-111,-395,-320,-395v-225,0,-436,196,-472,395v-40,219,110,396,319,396xm895,-1516v264,0,476,227,432,489r6,0v-53,237,-143,424,-269,564v-133,148,-312,321,-494,489r-170,0r84,-83v196,-179,354,-336,474,-470v-47,44,-137,66,-268,66v-279,0,-479,-235,-424,-528v50,-265,328,-527,629,-527","w":1207},":":{"d":"188,-166v68,-60,181,-22,165,74v-13,77,-134,147,-194,74v-38,-47,-10,-114,29,-148xm298,-733v68,-58,181,-23,165,73v-13,78,-132,147,-193,75v-39,-46,-11,-114,28,-148","w":460},";":{"d":"432,-197r-268,398r-120,0r184,-398r204,0xm302,-733v67,-58,180,-23,164,73v-13,78,-133,146,-193,75v-39,-46,-10,-114,29,-148","w":519},"\u037e":{"d":"432,-197r-268,398r-120,0r184,-398r204,0xm302,-733v67,-58,180,-23,164,73v-13,78,-133,146,-193,75v-39,-46,-10,-114,29,-148","w":519},"<":{"d":"1243,-124r-1143,-416r1143,-416r0,135r-772,281r772,281r0,135","w":1343},"=":{"d":"125,-777r780,0r0,127r-780,0r0,-127xm125,-483r780,0r0,127r-780,0r0,-127","w":1030},">":{"d":"100,-259r773,-281r-773,-281r0,-135r1143,416r-1143,416r0,-135","w":1343},"?":{"d":"719,-1336v-142,0,-225,94,-252,228r-124,-6v26,-161,148,-284,287,-327v226,-70,435,68,384,314v-36,172,-158,263,-299,369v-120,90,-222,193,-259,347v-9,36,-7,81,1,132r-126,41v-24,-172,14,-262,85,-370v70,-107,171,-190,281,-273v98,-74,164,-133,189,-247v27,-122,-51,-208,-167,-208xm290,-166v68,-60,181,-22,165,74v-13,77,-134,147,-194,74v-38,-47,-10,-114,29,-148","w":946},"@":{"d":"1125,-585v-4,-101,-89,-179,-193,-179v-136,0,-260,118,-282,238v-24,130,65,235,190,235v112,0,243,-85,262,-178xm1059,-255v-123,112,-377,118,-477,-21v-190,-263,87,-608,371,-608v99,0,169,28,212,84r14,-72r119,0r-120,614v3,15,11,22,24,22v19,0,55,-33,114,-94v143,-147,153,-409,20,-575v-181,-225,-540,-192,-758,0v-123,108,-200,232,-231,380v-62,295,149,535,432,535v101,0,183,-17,244,-51r67,88v-103,55,-215,82,-334,82v-344,0,-596,-295,-529,-654v62,-329,411,-656,784,-656v346,0,597,295,526,656v-27,136,-216,411,-373,405v-85,-3,-125,-58,-105,-135","w":1560},"A":{"d":"957,-691r-89,-531r-297,531r386,0xm979,-564r-479,0r-315,564r-135,0r889,-1592r270,1592r-135,0","w":1259,"k":{"y":50,"w":65,"v":70,"u":20,"Y":80,"W":60,"V":102,"U":40,"T":25,"Q":40,"O":50,"G":40,"C":40}},"B":{"d":"445,-1516r283,-1v157,-5,272,133,238,296v-17,83,-59,150,-129,200v43,9,87,51,139,119v80,104,104,226,81,373v-39,250,-313,529,-578,529r-329,0xm457,-925r-155,798r202,0v274,-26,570,-406,360,-682v-60,-79,-148,-116,-257,-116r-150,0xm547,-1389r-65,332v115,-2,222,10,289,-46v61,-51,105,-163,47,-239v-50,-65,-165,-43,-271,-47","w":1044,"k":{"A":10}},"C":{"d":"1401,-286r78,85v-187,145,-381,218,-582,218v-410,0,-714,-347,-624,-775v45,-213,155,-394,333,-548v318,-275,809,-324,1090,-10r-112,87v-236,-256,-642,-215,-904,13v-148,129,-240,280,-278,458v-76,357,179,648,520,648v165,0,324,-59,479,-176","w":1540,"k":{"A":40}},"D":{"d":"546,-1386r-244,1256v417,10,720,-295,783,-628v35,-179,1,-331,-100,-458v-91,-113,-237,-170,-439,-170xm571,-1514v240,3,415,72,523,207v122,152,161,335,120,549v-77,401,-440,762,-937,756r0,2r-127,0r295,-1516r127,0","w":1167,"k":{"Y":45,"W":30,"V":50,"A":50,".":50,",":50}},"E":{"d":"1225,-1516r-25,127r-653,0r-110,568r653,0r-25,126r-653,0r-110,568r653,0r-25,127r-780,0r295,-1516r780,0","w":1055},"F":{"d":"1133,-1516r-25,127r-561,0r-110,568r561,0r-25,126r-561,0r-135,695r-127,0r295,-1516r688,0","w":963,"k":{"e":20,"a":20,"A":75,".":175,",":175}},"G":{"d":"1462,-196v-176,142,-364,213,-565,213v-410,0,-714,-347,-624,-775v45,-213,155,-394,333,-548v318,-275,809,-324,1090,-10r-112,87v-236,-256,-642,-215,-904,13v-148,129,-240,280,-278,458v-76,357,179,648,520,648v153,0,294,-45,423,-135r89,-460r127,0","w":1565,"k":{"Y":15,".":40,",":40}},"H":{"d":"405,-660r-128,660r-127,0r295,-1516r127,0r-142,730r572,0r142,-730r127,0r-295,1516r-127,0r128,-660r-572,0","w":1126},"I":{"d":"592,-1516r-295,1516r-127,0r295,-1516r127,0","w":467},"J":{"d":"331,-162v94,111,272,9,298,-125r239,-1229r127,0r-241,1242v-23,151,-178,287,-341,287v-154,0,-268,-130,-234,-290r133,-33v-13,67,-8,117,19,148","w":855,"k":{"a":20,"A":30,".":15}},"K":{"d":"418,-727r-141,727r-127,0r295,-1516r127,0r-114,583r551,-583r161,0r-578,615r409,901r-155,0r-357,-798","w":1090,"k":{"y":25,"u":35,"o":45,"e":20,"O":30}},"L":{"d":"150,0r295,-1516r127,0r-270,1389r570,0r-25,127r-697,0","w":937,"k":{"y":23,"Y":80,"W":55,"V":113,"T":46}},"M":{"d":"590,-1516r359,935r721,-935r145,0r-26,34r-288,1482r-127,0r245,-1262r-719,932r-359,-932r-245,1262r-126,0r288,-1482r-13,-34r145,0","w":1670},"N":{"d":"445,-1516r126,0r478,1249r243,-1249r127,0r-295,1516r-117,0r-485,-1262r-245,1262r-127,0","w":1274},"O":{"d":"1201,-1537v411,0,716,349,627,777v-45,214,-154,398,-335,550v-181,152,-379,227,-594,227v-411,0,-716,-349,-626,-777v45,-214,153,-398,334,-550v181,-152,379,-227,594,-227xm1176,-1409v-368,0,-713,323,-774,649v-67,359,179,650,521,650v370,0,715,-324,776,-650v67,-359,-180,-649,-523,-649","w":1805,"k":{"Y":40,"X":30,"W":20,"V":45,"T":15,"A":60,".":50,",":50}},"P":{"d":"855,-1516v233,26,398,238,349,502v-47,254,-313,506,-600,503r-228,0r-99,511r-127,0r295,-1516r410,0xm547,-1388r-146,750r228,0v213,3,413,-187,448,-376v38,-207,-104,-374,-302,-374r-228,0","w":1062,"k":{"o":20,"e":20,"a":20,"A":100,".":240,",":240}},"Q":{"d":"1176,-1409v-368,0,-713,323,-774,649v-67,359,179,650,521,650v370,0,715,-324,776,-650v67,-359,-180,-649,-523,-649xm989,75v-101,0,-167,70,-192,159r-127,0v34,-124,95,-193,198,-249r-69,32v-149,-1,-284,-78,-405,-228v-122,-152,-163,-334,-121,-549v41,-215,153,-398,334,-550v181,-152,379,-227,594,-227v411,0,716,349,627,777v-45,214,-154,397,-335,549v-131,110,-246,175,-345,195v71,37,157,112,237,121v77,-10,124,-51,138,-128r128,0v-26,114,-79,175,-168,223v-40,21,-80,31,-120,31v-139,0,-238,-156,-374,-156","w":1805},"R":{"d":"547,-1388r-146,750r228,0v213,3,413,-187,448,-376v38,-207,-104,-374,-302,-374r-228,0xm855,-1516v233,26,403,239,349,502v-29,139,-99,258,-216,356v-81,68,-158,110,-229,127r242,531r-155,0r-242,-511r-228,0r-99,511r-127,0r295,-1516r410,0","w":1062,"k":{"Y":10,"W":-10,"V":10,"T":-15}},"S":{"d":"255,-429v-20,191,98,321,271,321v190,0,369,-165,398,-334v34,-198,-99,-316,-240,-374v-99,-41,-181,-83,-229,-150v-176,-242,82,-567,348,-567v146,0,256,90,273,235r-124,45v-14,-95,-75,-155,-173,-156v-167,-2,-326,202,-215,354v30,41,77,82,144,108v200,76,388,234,341,505v-41,232,-286,459,-547,459v-224,0,-390,-167,-377,-402","w":1013},"T":{"d":"819,-1389r-270,1389r-126,0r270,-1389r-373,0r25,-127r872,0r-25,127r-373,0","w":972,"k":{"y":30,"w":55,"u":46,"r":30,"o":49,"e":49,"a":70,"O":15,"A":25,";":29,":":15,".":91,"-":75,",":82}},"U":{"d":"1323,-1516r127,0r-210,1081v-69,230,-316,448,-589,448v-266,0,-460,-225,-406,-502r200,-1027r128,0r-200,1027v-45,205,106,374,303,374v213,0,411,-187,447,-374","w":1305,"k":{"A":40,".":20,",":20}},"V":{"d":"479,-1516r207,1222r682,-1222r136,0r-889,1592r-270,-1592r134,0","w":1259,"k":{"u":55,"o":101,"i":35,"e":101,"a":104,"O":45,"G":20,"A":102,";":33,":":18,".":145,"-":90,",":145}},"W":{"d":"913,-248v27,78,106,134,201,134v144,0,283,-128,308,-256r223,-1146r127,0r-224,1154v-34,189,-242,375,-458,375v-115,0,-205,-50,-266,-129v-88,74,-202,129,-316,129v-200,0,-352,-170,-312,-375r224,-1154r127,0r-223,1146v-31,140,74,256,208,256v97,0,205,-64,254,-134r247,-1268r127,0","w":1602,"k":{"y":20,"u":30,"o":46,"i":10,"e":47,"a":50,"O":20,"A":58,";":33,":":15,".":106,"-":50,",":106}},"X":{"d":"50,0r641,-831r-262,-685r145,0r213,559r433,-559r146,0r-530,685r319,831r-146,0r-271,-705r-543,705r-145,0","w":1205},"Y":{"d":"691,-611r-346,-905r146,0r292,763r588,-763r146,0r-699,905r-119,611r-127,0","w":1272,"k":{"u":85,"o":89,"i":15,"e":89,"a":93,"O":40,"A":80,";":23,":":10,".":145,"-":105,",":145}},"Z":{"d":"1222,-1389r-786,0r25,-127r1005,0r-1073,1389r787,0r-25,127r-1005,0","w":1321},"[":{"d":"210,218r202,0r-25,127r-329,0r362,-1861r329,0r-25,127r-202,0","w":579},"\\":{"d":"779,0r-142,0r-392,-1516r143,0","w":729},"]":{"d":"597,-1389r-202,0r25,-127r329,0r-362,1861r-329,0r25,-127r202,0","w":579},"^":{"d":"531,-1516r309,535r-147,0r-223,-385r-223,385r-147,0r310,-535r121,0","w":939},"_":{"d":"28,-16r964,0r-24,126r-964,0","w":1014},"`":{"d":"617,-1228r146,216r-133,0r-241,-216r228,0","w":716},"a":{"d":"1167,0r-127,0r27,-139v-134,110,-274,165,-420,165v-278,0,-479,-236,-425,-527v50,-266,330,-528,630,-528v146,0,265,55,356,165r16,-83r127,0xm673,-107v197,0,394,-158,449,-315r31,-159v1,-181,-146,-316,-327,-316v-225,0,-436,197,-473,396v-41,219,111,394,320,394","w":1317,"k":{"t":-5,"p":-20,"b":-5}},"b":{"d":"445,-1516r127,0r-127,650v134,-109,274,-163,419,-163v279,0,479,235,424,528v-50,265,-328,527,-629,527v-145,0,-264,-55,-355,-164r-27,138r-127,0xm358,-417v2,177,147,310,327,310v225,0,435,-195,472,-394v40,-219,-110,-396,-319,-396v-195,0,-415,149,-447,311","w":1316,"k":{"y":20,"v":20,"u":10}},"c":{"d":"638,-107v130,0,262,-68,349,-158r120,46v-117,139,-303,245,-495,245v-278,0,-479,-236,-424,-528v50,-265,329,-527,629,-527v189,0,328,93,400,243r-139,48v-55,-100,-157,-159,-287,-159v-224,0,-435,196,-471,395v-40,219,110,395,318,395","w":1154,"k":{"y":20,"k":15}},"d":{"d":"1167,0r-127,0r27,-139v-134,110,-274,165,-420,165v-278,0,-479,-236,-425,-527v50,-266,330,-528,630,-528v146,0,265,55,356,165r127,-652r127,0xm673,-107v197,0,394,-158,449,-315r31,-159v1,-181,-146,-316,-327,-316v-225,0,-436,197,-473,396v-41,219,111,394,320,394","w":1317},"e":{"d":"1107,-219v-117,139,-303,245,-495,245v-278,0,-479,-236,-424,-528v50,-265,329,-527,629,-527v164,0,297,74,368,187r-777,650v52,57,129,85,230,85v130,0,262,-68,349,-158xm996,-834v-47,-42,-115,-63,-205,-63v-224,0,-439,196,-471,395v-15,91,-11,162,20,217","w":1154,"k":{"y":20,"w":20,"v":20}},"f":{"d":"469,-821r-238,1162r-127,0r238,-1162r-92,0r24,-126r92,0r44,-224v39,-171,247,-335,457,-239r-64,117v-119,-71,-249,30,-268,129r-42,217r184,0r-24,126r-184,0","w":534,"k":{"o":20,"l":30,"i":30,"f":15,"a":20,".":50,",":50}},"g":{"d":"1153,-586v-2,-178,-147,-311,-327,-311v-225,0,-436,197,-473,396v-41,219,111,395,320,395v195,0,416,-147,447,-309xm325,4v58,97,158,158,288,158v109,0,209,-39,301,-116v83,-70,131,-129,144,-177r-7,2v-213,191,-569,222,-747,1v-83,-103,-107,-227,-82,-373v45,-267,330,-527,630,-527v146,0,265,55,356,164r16,-83r127,0r-141,724v-40,263,-328,517,-623,517v-189,0,-329,-93,-400,-244","w":1321,"k":{"a":15}},"h":{"d":"445,-1516r127,0r-114,586v59,-48,140,-72,244,-72v215,0,354,157,312,375r-122,627r-127,0r120,-619v31,-140,-74,-256,-208,-256v-98,0,-211,70,-257,139r-143,736r-127,0","w":1042,"k":{"y":30}},"i":{"d":"477,-947r-184,947r-127,0r184,-947r127,0xm396,-1238v67,-60,181,-22,165,74v-13,77,-133,147,-193,74v-39,-47,-11,-113,28,-148","w":460},"j":{"d":"33,85v75,-9,119,-44,131,-105r180,-927r127,0r-180,925v-27,143,-122,221,-283,234xm391,-1238v68,-60,180,-22,164,74v-13,77,-133,147,-193,74v-39,-47,-10,-113,29,-148","w":479},"k":{"d":"843,-947r-300,300r240,647r-154,0r-191,-544r-69,69r-92,475r-127,0r259,-1332r127,0r-127,654r270,-269r164,0","w":833,"k":{"y":25,"o":45,"e":35}},"l":{"d":"572,-1516r-295,1516r-127,0r295,-1516r127,0","w":427,"k":{"w":20}},"m":{"d":"334,-947r127,0r2,-9v37,-30,94,-45,172,-45v91,0,161,42,205,106v65,-59,158,-106,248,-106v152,0,265,126,235,281r-140,720r-127,0r144,-741v7,-65,-62,-133,-137,-133v-95,0,-180,82,-197,168r-137,706r-126,0r143,-741v8,-65,-62,-133,-136,-133v-89,0,-177,72,-192,148r-141,726r-127,0","w":1333,"k":{"y":20,"u":20}},"n":{"d":"688,-875v-106,0,-226,82,-271,156r-140,719r-127,0r184,-947r127,0r-5,27v124,-112,413,-112,512,25v54,74,78,161,57,268r-122,627r-126,0r120,-619v32,-140,-75,-256,-209,-256","w":1053,"k":{"y":15,"v":30,"u":15}},"o":{"d":"414,-874v215,-189,569,-221,746,0v83,103,106,226,81,373v-45,266,-328,527,-629,527v-278,0,-486,-237,-425,-527v30,-146,106,-267,227,-373xm791,-897v-225,0,-436,197,-473,396v-41,219,111,394,320,394v225,0,435,-195,472,-394v41,-219,-110,-396,-319,-396","w":1234,"k":{"y":20,"x":15,"w":20,"v":30,".":25,",":25}},"p":{"d":"334,-947r127,0r-16,81v134,-108,274,-162,419,-162v279,0,479,234,424,527v-50,265,-328,527,-629,527v-145,0,-264,-55,-355,-164r-94,483r-127,0xm358,-417v2,178,147,311,327,311v225,0,436,-196,472,-395v40,-219,-110,-396,-319,-396v-195,0,-415,149,-447,311","w":1291,"k":{"y":20,".":25,",":25}},"q":{"d":"1075,345r-127,0r94,-484v-134,110,-274,165,-420,165v-278,0,-479,-236,-425,-527v50,-266,330,-527,630,-527v146,0,265,55,356,164r16,-83r127,0xm648,-106v197,0,394,-158,449,-316r31,-159v1,-181,-146,-316,-327,-316v-225,0,-436,197,-473,396v-41,219,111,395,320,395","w":1292},"r":{"d":"334,-947r127,0r-22,116v109,-88,212,-134,311,-139r-27,135v-167,14,-322,196,-351,347r-95,488r-127,0","w":611,"k":{"y":-40,"v":-40,"u":-20,"t":-40,"s":-20,"q":8,"p":-20,"o":20,"n":-21,"m":-28,"l":-20,"k":-20,"i":-20,"g":-1,"e":4,"d":6,"c":7,".":73,"-":60,",":75}},"s":{"d":"676,-700v6,-102,-6,-146,-87,-149v-90,-3,-177,109,-116,191v38,51,199,141,229,184v148,217,-69,496,-301,496v-154,0,-268,-130,-234,-290r133,-33v-28,122,26,194,126,196v132,3,259,-160,170,-280v-14,-19,-47,-48,-99,-83v-62,-41,-108,-72,-130,-101v-129,-173,57,-408,247,-408v127,0,218,106,183,232","w":799,"k":{"t":-15,".":-20,",":-20}},"t":{"d":"458,-947r75,-385r127,0r-75,385r184,0r-24,126r-184,0r-160,821r-127,0r160,-821r-184,0r24,-126r184,0","w":675},"u":{"d":"838,-94v-145,132,-441,149,-560,0v-57,-71,-79,-160,-58,-268r115,-587r127,0r-113,579v-30,144,75,256,217,256v144,0,283,-128,308,-256r113,-579r127,0r-115,587v-23,108,-79,194,-161,268","w":1079,"k":{"z":-15}},"v":{"d":"572,-225r474,-722r145,0r-674,1001r-283,-1001r145,0","w":1057,"k":{"o":20,"e":20,"a":30,".":90,",":90}},"w":{"d":"357,-162v88,108,275,13,297,-100r133,-685r126,0r-129,666v-21,93,44,167,131,167v79,0,178,-74,189,-133r136,-700r127,0r-132,679v-28,143,-181,282,-344,281v-80,0,-149,-35,-206,-106v-85,71,-167,106,-247,106v-151,0,-266,-125,-236,-281r132,-679r127,0r-136,700v-4,27,7,55,32,85","w":1333,"k":{"o":30,"h":-15,"e":20,"a":30,".":90,",":90}},"x":{"d":"948,-947r-331,429r198,518r-147,0r-148,-386r-298,386r-147,0r401,-518r-165,-429r146,0r114,297r230,-297r147,0","w":889,"k":{"i":-15}},"y":{"d":"246,345r-129,0r358,-534r-216,-758r143,0r166,617r406,-617r141,0","w":1007,"k":{"o":30,"e":20,"a":30,".":85,",":100}},"z":{"d":"773,-808r-450,0r25,-127r669,0r-624,808r486,0r-25,127r-704,0","w":1004},"{":{"d":"726,-1114v-10,256,-109,437,-280,529v113,71,150,215,117,387v-22,115,-135,325,-5,407v43,27,70,27,133,18r-22,112v-201,35,-324,-113,-278,-324v21,-99,68,-212,68,-340v0,-105,-102,-193,-191,-204r22,-113v108,-16,230,-106,271,-204v26,-64,50,-130,52,-213v5,-207,74,-348,216,-419v69,-35,118,-47,200,-32r-22,114v-26,-5,-44,-7,-54,-7v-153,13,-221,134,-227,289","w":861},"|":{"d":"277,-1516r0,1861r-127,0r0,-1861r127,0","w":427},"}":{"d":"403,-57v12,-257,110,-437,280,-528v-113,-73,-150,-216,-117,-388v23,-117,133,-326,4,-408v-43,-27,-71,-27,-134,-15r22,-114v201,-34,326,112,279,323v-22,99,-69,213,-69,341v0,104,102,193,192,204r-22,113v-107,16,-232,106,-271,204v-26,64,-50,131,-52,213v-6,207,-74,348,-217,419v-69,34,-117,47,-199,32r22,-112v192,28,274,-117,282,-284","w":861},"~":{"d":"369,-803v-85,0,-114,71,-117,169r-127,-20v7,-142,72,-235,181,-265v118,-33,186,12,325,86v114,61,192,97,240,97v84,0,116,-68,116,-169r129,20v-9,141,-71,235,-181,265v-119,33,-186,-12,-325,-86v-115,-62,-194,-97,-241,-97","w":1241}}});
